{"learner":{"attributes":{"scikit_learn":"{\"_estimator_type\": \"classifier\"}"},"feature_names":["anime_id","user_id","normalized_user_completed","normalized_gender","normalized_duration_min","normalized_episodes","Action","Adventure","Cars","Comedy","Dementia","Demons","Drama","Ecchi","Fantasy","Game","Harem","Hentai","Historical","Horror","Josei","Kids","Magic","Martial Arts","Mecha","Military","Music","Mystery","Parody","Police","Psychological","Romance","Samurai","School","Sci-Fi","Seinen","Shoujo","Shoujo Ai","Shounen","Shounen Ai","Slice of Life","Space","Sports","Super Power","Supernatural","Thriller","Vampire","Yaoi","Yuri"],"feature_types":["int","int","float","int","float","float","float","float","float","float","float","float","float","float","float","float","float","float","float","float","float","float","float","float","float","float","float","float","float","float","float","float","float","float","float","float","float","float","float","float","float","float","float","float","float","float","float","float","float"],"gradient_booster":{"model":{"gbtree_model_param":{"num_parallel_tree":"1","num_trees":"100"},"iteration_indptr":[0,1,2,3,4,5,6,7,8,9,10,11,12,13,14,15,16,17,18,19,20,21,22,23,24,25,26,27,28,29,30,31,32,33,34,35,36,37,38,39,40,41,42,43,44,45,46,47,48,49,50,51,52,53,54,55,56,57,58,59,60,61,62,63,64,65,66,67,68,69,70,71,72,73,74,75,76,77,78,79,80,81,82,83,84,85,86,87,88,89,90,91,92,93,94,95,96,97,98,99,100],"tree_info":[0,0,0,0,0,0,0,0,0,0,0,0,0,0,0,0,0,0,0,0,0,0,0,0,0,0,0,0,0,0,0,0,0,0,0,0,0,0,0,0,0,0,0,0,0,0,0,0,0,0,0,0,0,0,0,0,0,0,0,0,0,0,0,0,0,0,0,0,0,0,0,0,0,0,0,0,0,0,0,0,0,0,0,0,0,0,0,0,0,0,0,0,0,0,0,0,0,0,0,0],"trees":[{"base_weights":[-6.945127E-8,3.2379378E-2,-4.549726E-1,3.5392344E-3,5.088168E-1,-3.8962448E-1,-9.133415E-1,-9.3415596E-2,1.8450996E-1,1.0235546E0,3.9490294E-1,-1.6490689E-1,-4.8348123E-1,-9.490007E-1,-1.86896E-1,-4.8490593E-1,-6.607882E-2,4.1969188E-2,2.749321E-1,5.028645E-1,1.2710038E0,3.2415673E-1,9.721651E-1,-2.703583E-1,9.6693456E-1,-9.929803E-1,-4.5848653E-1,-7.6293355E-1,-1.0284119E0,-3.3234113E-1,1.9414876E-1,-2.534087E-1,-5.8302975E-1,7.879502E-1,-7.3221736E-2,1.7742446E-1,-2.4490793E-1,-3.88296E-1,3.0274212E-1,-7.248164E-2,7.073302E-1,7.8006876E-1,1.4501289E0,3.0279025E-1,1.0413251E0,7.657107E-1,1.4998254E0,1.795545E-1,-4.38795E-1,2.0690756E-1,1.3255107E0,-1.0300944E0,-4.6584687E-1,-4.9391744E-1,-1.9756551E-1,-9.654456E-1,-1.6157718E-1,-1.1191623E0,-8.73292E-1,-4.620063E-1,-1.3290249E-1,-1.7138046E-1,2.5421932E-1,-9.3737304E-2,8.656928E-2,-1.255396E-1,-2.2177404E-1,2.8622293E-1,1.8932608E-1,-2.9179621E-2,2.770356E-2,1.4034858E-1,4.1727036E-2,-9.783189E-2,6.234814E-2,-8.484072E-2,-2.4983917E-1,1.1154162E-1,5.1614523E-2,6.664717E-3,-1.2405125E-1,2.5024495E-1,1.0428542E-1,2.743458E-1,1.0968267E-1,4.6342453E-1,3.3294865E-1,1.11054696E-1,3.6914E-2,3.4875286E-1,1.4583828E-1,2.8573686E-1,2.3783017E-2,4.292621E-1,5.0710595E-1,2.4108967E-1,-6.6179015E-2,-1.6473408E-1,3.9918505E-2,3.25287E-2,1.4453882E-1,3.6205688E-1,4.5512915E-1,-3.745963E-1,-2.7739894E-1,-1.9874229E-1,-3.876299E-2,-1.5676746E-1,-4.8267957E-2,2.6167525E-4,-2.2696431E-1,-2.652305E-1,-3.622381E-1,-4.067846E-1,-1.467806E-2,-3.4165815E-1,-2.0891593E-1,5.0841747E-3,-2.699139E-1,-1.7244884E-1,-1.0657083E-1,-1.5533516E-1,6.275418E-3,9.333035E-3,-1.9642712E-1,7.133164E-2,4.877205E-1],"categories":[],"categories_nodes":[],"categories_segments":[],"categories_sizes":[],"default_left":[0,0,0,0,0,0,1,0,0,0,1,0,0,0,0,0,0,0,0,0,0,0,0,0,0,0,1,0,0,0,0,1,0,0,0,0,0,0,0,0,0,0,0,0,0,0,0,0,0,0,0,0,0,0,0,0,0,1,0,0,0,0,0,0,0,0,0,0,0,0,0,0,0,0,0,0,0,0,0,0,0,0,0,0,0,0,0,0,0,0,0,0,0,0,0,0,0,0,0,0,0,0,0,0,0,0,0,0,0,0,0,0,0,0,0,0,0,0,0,0,0,0,0,0,0,0,0],"id":0,"left_children":[1,3,5,7,9,11,13,15,17,19,21,23,25,27,29,31,33,35,37,39,41,43,45,47,49,51,53,55,57,59,61,63,65,67,69,71,73,75,77,79,81,83,85,87,89,91,93,95,97,99,101,103,105,107,109,111,113,115,117,119,121,123,125,-1,-1,-1,-1,-1,-1,-1,-1,-1,-1,-1,-1,-1,-1,-1,-1,-1,-1,-1,-1,-1,-1,-1,-1,-1,-1,-1,-1,-1,-1,-1,-1,-1,-1,-1,-1,-1,-1,-1,-1,-1,-1,-1,-1,-1,-1,-1,-1,-1,-1,-1,-1,-1,-1,-1,-1,-1,-1,-1,-1,-1,-1,-1,-1],"loss_changes":[3.421139E4,2.9789402E4,4.6212305E3,3.586845E4,7.2554473E3,2.8481113E3,4.9851953E2,1.4245641E4,9.191555E3,2.8883496E3,4.137635E3,4.748976E3,1.2126035E3,2.7035742E2,5.0055805E1,1.9733984E3,7.590193E3,1.0756207E4,8.048211E3,8.499668E2,1.3354062E3,1.3828125E3,1.2038604E3,2.758278E3,9.239055E2,8.665137E1,8.393496E2,6.687827E2,1.800332E2,1.6830666E1,5.5289974E0,8.2785315E2,1.5683047E3,2.6833447E2,4.912013E3,2.0930781E3,3.2636948E3,8.2321533E2,3.7799297E3,6.121398E1,2.4288232E2,2.2613647E2,3.5680078E2,1.0617173E3,1.7510425E2,1.0193667E3,3.843506E1,2.4762146E3,1.6707622E3,2.9407074E1,5.054297E1,9.470068E1,1.942569E1,7.6244336E2,1.2043824E3,7.9823E1,1.862788E2,6.673633E1,1.1175391E2,4.5593643E0,1.5330324E1,3.5300937E0,4.4624662E0,0E0,0E0,0E0,0E0,0E0,0E0,0E0,0E0,0E0,0E0,0E0,0E0,0E0,0E0,0E0,0E0,0E0,0E0,0E0,0E0,0E0,0E0,0E0,0E0,0E0,0E0,0E0,0E0,0E0,0E0,0E0,0E0,0E0,0E0,0E0,0E0,0E0,0E0,0E0,0E0,0E0,0E0,0E0,0E0,0E0,0E0,0E0,0E0,0E0,0E0,0E0,0E0,0E0,0E0,0E0,0E0,0E0,0E0,0E0,0E0,0E0,0E0,0E0,0E0],"parents":[2147483647,0,0,1,1,2,2,3,3,4,4,5,5,6,6,7,7,8,8,9,9,10,10,11,11,12,12,13,13,14,14,15,15,16,16,17,17,18,18,19,19,20,20,21,21,22,22,23,23,24,24,25,25,26,26,27,27,28,28,29,29,30,30,31,31,32,32,33,33,34,34,35,35,36,36,37,37,38,38,39,39,40,40,41,41,42,42,43,43,44,44,45,45,46,46,47,47,48,48,49,49,50,50,51,51,52,52,53,53,54,54,55,55,56,56,57,57,58,58,59,59,60,60,61,61,62,62],"right_children":[2,4,6,8,10,12,14,16,18,20,22,24,26,28,30,32,34,36,38,40,42,44,46,48,50,52,54,56,58,60,62,64,66,68,70,72,74,76,78,80,82,84,86,88,90,92,94,96,98,100,102,104,106,108,110,112,114,116,118,120,122,124,126,-1,-1,-1,-1,-1,-1,-1,-1,-1,-1,-1,-1,-1,-1,-1,-1,-1,-1,-1,-1,-1,-1,-1,-1,-1,-1,-1,-1,-1,-1,-1,-1,-1,-1,-1,-1,-1,-1,-1,-1,-1,-1,-1,-1,-1,-1,-1,-1,-1,-1,-1,-1,-1,-1,-1,-1,-1,-1,-1,-1,-1,-1,-1,-1],"split_conditions":[3.2438E4,6.0493827E-1,3.5849E4,7.834359E-3,4.37E2,1E0,1E0,1.1111111E-1,1.519E3,6.6049385E-1,1E0,1.3989927E-2,3.7037037E-2,6.155568E-3,3.6296E4,6.956E3,4.7E1,1.445589E6,1.3580246E-1,5.7E1,9.8E1,1E0,3.1772E4,3.3018E4,3.3486E4,8.393956E-3,1E0,3.9171795E-3,7.2747623E-3,4.918316E6,4.5231608E-1,1E0,3.9171795E-3,4.71004E5,2.777778E-1,4.7E1,6.267487E-2,1.8277E4,1.45495245E-2,1.605231E6,1.267831E6,3.220179E6,3.808719E6,1.2367E4,4.311087E6,1.3125E4,4.725264E6,6.155568E-3,1E0,8.0653954E-1,4.342729E6,1E0,3.3018E4,3.5459E4,3.3654E4,1.5432099E-1,3.7037037E-2,1E0,4.9382716E-2,6.702997E-1,4.7138965E-1,5.753961E6,9.9727523E-1,-9.3737304E-2,8.656928E-2,-1.255396E-1,-2.2177404E-1,2.8622293E-1,1.8932608E-1,-2.9179621E-2,2.770356E-2,1.4034858E-1,4.1727036E-2,-9.783189E-2,6.234814E-2,-8.484072E-2,-2.4983917E-1,1.1154162E-1,5.1614523E-2,6.664717E-3,-1.2405125E-1,2.5024495E-1,1.0428542E-1,2.743458E-1,1.0968267E-1,4.6342453E-1,3.3294865E-1,1.11054696E-1,3.6914E-2,3.4875286E-1,1.4583828E-1,2.8573686E-1,2.3783017E-2,4.292621E-1,5.0710595E-1,2.4108967E-1,-6.6179015E-2,-1.6473408E-1,3.9918505E-2,3.25287E-2,1.4453882E-1,3.6205688E-1,4.5512915E-1,-3.745963E-1,-2.7739894E-1,-1.9874229E-1,-3.876299E-2,-1.5676746E-1,-4.8267957E-2,2.6167525E-4,-2.2696431E-1,-2.652305E-1,-3.622381E-1,-4.067846E-1,-1.467806E-2,-3.4165815E-1,-2.0891593E-1,5.0841747E-3,-2.699139E-1,-1.7244884E-1,-1.0657083E-1,-1.5533516E-1,6.275418E-3,9.333035E-3,-1.9642712E-1,7.133164E-2,4.877205E-1],"split_indices":[0,4,0,5,0,9,43,4,0,4,7,5,4,5,0,0,0,1,4,0,0,4,0,0,0,5,38,5,5,1,2,27,5,1,4,0,5,0,5,1,1,1,1,0,1,0,1,5,33,2,1,23,0,0,0,4,4,15,4,2,2,1,2,0,0,0,0,0,0,0,0,0,0,0,0,0,0,0,0,0,0,0,0,0,0,0,0,0,0,0,0,0,0,0,0,0,0,0,0,0,0,0,0,0,0,0,0,0,0,0,0,0,0,0,0,0,0,0,0,0,0,0,0,0,0,0,0],"split_type":[0,0,0,0,0,0,0,0,0,0,0,0,0,0,0,0,0,0,0,0,0,0,0,0,0,0,0,0,0,0,0,0,0,0,0,0,0,0,0,0,0,0,0,0,0,0,0,0,0,0,0,0,0,0,0,0,0,0,0,0,0,0,0,0,0,0,0,0,0,0,0,0,0,0,0,0,0,0,0,0,0,0,0,0,0,0,0,0,0,0,0,0,0,0,0,0,0,0,0,0,0,0,0,0,0,0,0,0,0,0,0,0,0,0,0,0,0,0,0,0,0,0,0,0,0,0,0],"sum_hessian":[2.3222862E6,2.1679952E6,1.5429078E5,2.0442519E6,1.237435E5,1.3504038E5,1.92504E4,1.3311112E6,7.131406E5,2.2421307E4,1.01322195E5,3.9785723E4,9.5254664E4,1.8349375E4,9.01026E2,8.688033E4,1.2442309E6,2.7679866E5,4.3634197E5,7.2238022E3,1.5197504E4,9.026175E4,1.1060443E4,3.639558E4,3.3901418E3,4.4526143E3,9.080205E4,5.4919243E3,1.285745E4,6.522061E2,2.4881985E2,2.5864193E4,6.1016133E4,1.0319259E4,1.2339116E6,1.8802089E5,8.877777E4,1.7559572E4,4.1878238E5,1.8942415E3,5.3295605E3,4.064134E3,1.113337E4,8.765178E4,2.6099712E3,7.951686E3,3.1087576E3,9.914038E3,2.6481541E4,1.0872395E3,2.3029023E3,4.158846E3,2.9376794E2,7.994524E4,1.0856802E4,4.1079355E3,1.3839888E3,8.107858E3,4.749593E3,3.9444254E2,2.577636E2,3.485771E1,2.1396214E2,2.3323479E4,2.5407144E3,2.971597E4,3.1300162E4,5.009191E3,5.310068E3,1.0774452E6,1.564664E5,2.1923896E4,1.66097E5,7.527706E4,1.3500713E4,1.4192822E4,3.3667505E3,2.7399284E5,1.4478953E5,1.4832874E3,4.1095407E2,3.9393801E3,1.3901805E3,3.0679373E3,9.961967E2,8.708466E3,2.4249043E3,6.3749023E4,2.3902758E4,2.141456E3,4.6851517E2,6.2507676E3,1.7009187E3,2.2889133E3,8.1984424E2,3.8728752E3,6.0411626E3,2.2199088E4,4.2824536E3,8.0149805E2,2.8574152E2,1.4266436E3,8.7625867E2,1.3498191E3,2.809027E3,1.848376E2,1.0893035E2,7.361376E4,6.3314907E3,8.013146E3,2.8436555E3,3.0780276E3,1.0299078E3,1.18332756E2,1.265656E3,7.745292E3,3.6256607E2,1.3690825E2,4.6126846E3,1.8965347E2,2.0478906E2,7.2926E1,1.848376E2,2.5225975E1,9.631736E0,2.1258618E2,1.3759623E0],"tree_param":{"num_deleted":"0","num_feature":"49","num_nodes":"127","size_leaf_vector":"1"}},{"base_weights":[-1.1809295E-3,2.7923068E-2,-2.797721E-1,-3.3801368E-1,4.7213737E-2,-3.0336556E-1,5.1068604E-1,-2.4302551E-1,-5.139501E-1,2.329744E-2,2.807443E-1,-2.6615283E-1,-7.196696E-1,1.7005917E-2,9.476231E-1,-6.1239094E-1,-2.090325E-1,-3.5908473E-1,-6.074001E-1,-5.1923532E-2,1.4315903E-1,5.1836306E-1,1.8350817E-1,-3.068029E-1,1.2838757E-2,-7.5081897E-1,-1.3529554E-1,-1.292599E-1,4.9822918E-1,8.393918E-1,1.0149876E0,-4.0446E-1,-7.926258E-1,-1.458848E-1,-3.8680592E-1,-4.0294382E-1,1.4638858E-1,-7.567236E-1,-4.5110598E-1,-9.408077E-3,-1.2998594E-1,3.739861E-2,2.1100911E-1,3.636288E-1,7.693528E-1,-1.18933795E-2,2.3496222E-1,-3.1727895E-1,6.155335E-1,-5.378743E-1,1.7048489E-1,-5.903771E-1,-8.214083E-1,-2.4312969E-1,1.3440862E-1,5.6476966E-2,-3.741137E-1,2.5304267E-1,6.595794E-1,7.880472E-1,1.1067272E0,9.487677E-1,1.1143844E0,-8.879736E-2,-2.4178047E-1,-3.9932284E-1,-2.0807157E-1,-7.4712455E-2,-2.8564988E-3,-1.5802556E-1,-7.9975665E-2,-1.538421E-1,-5.9804555E-2,8.6122684E-2,-3.0869836E-1,-2.5810283E-1,-1.8160892E-1,-1.7402714E-1,-5.3024124E-2,1.3371615E-1,-5.8425833E-3,-1.0697856E-1,-6.506336E-3,3.4340456E-2,-7.404276E-2,5.7668805E-2,1.5622173E-1,2.4161083E-1,6.704718E-2,2.3985197E-1,-6.248312E-2,1.6894707E-2,-8.449584E-2,9.0619676E-2,1.4823922E-2,-1.0815307E-1,-5.224422E-2,1.4991562E-1,2.3945642E-1,-1.8717569E-1,-4.047516E-3,-1.1232968E-1,1.025076E-1,-2.3939373E-1,-5.0626166E-2,-2.7166876E-1,-2.045708E-1,-1.0620333E-1,-3.271377E-2,3.6805578E-2,3.7933508E-1,-4.404895E-2,4.9950685E-2,-3.0959E-1,-5.874718E-2,6.0940664E-2,2.987932E-1,-7.0153065E-2,2.0562041E-1,2.2049227E-1,2.5997683E-1,3.1402498E-1,3.7582448E-1,2.6667058E-1,3.0018148E-1,3.9017662E-1,3.28887E-1],"categories":[],"categories_nodes":[],"categories_segments":[],"categories_sizes":[],"default_left":[0,0,0,0,0,0,1,0,0,0,0,1,1,0,0,0,0,1,0,0,0,0,0,1,0,0,0,0,0,0,0,1,0,0,0,0,0,0,1,0,0,0,1,0,1,0,0,0,0,0,0,0,0,0,0,0,0,0,0,0,0,0,0,0,0,0,0,0,0,0,0,0,0,0,0,0,0,0,0,0,0,0,0,0,0,0,0,0,0,0,0,0,0,0,0,0,0,0,0,0,0,0,0,0,0,0,0,0,0,0,0,0,0,0,0,0,0,0,0,0,0,0,0,0,0,0,0],"id":1,"left_children":[1,3,5,7,9,11,13,15,17,19,21,23,25,27,29,31,33,35,37,39,41,43,45,47,49,51,53,55,57,59,61,63,65,67,69,71,73,75,77,79,81,83,85,87,89,91,93,95,97,99,101,103,105,107,109,111,113,115,117,119,121,123,125,-1,-1,-1,-1,-1,-1,-1,-1,-1,-1,-1,-1,-1,-1,-1,-1,-1,-1,-1,-1,-1,-1,-1,-1,-1,-1,-1,-1,-1,-1,-1,-1,-1,-1,-1,-1,-1,-1,-1,-1,-1,-1,-1,-1,-1,-1,-1,-1,-1,-1,-1,-1,-1,-1,-1,-1,-1,-1,-1,-1,-1,-1,-1,-1],"loss_changes":[1.8799088E4,1.4818941E4,4.0901152E3,1.7566641E3,1.1137555E4,3.2987812E3,1.3711128E3,8.570266E2,5.331631E2,1.6309027E4,4.280134E3,2.2169229E3,3.179541E2,2.1019981E2,2.373291E1,2.1527051E2,7.0174414E2,3.0760815E2,5.360703E2,3.6885818E3,5.0049795E3,2.0888604E3,1.32171E3,1.6487891E3,2.1584368E3,1.8738477E2,2.5784546E1,1.0418228E2,2.7371643E1,1.6963623E1,1.2591309E1,1.16171234E2,1.6337964E2,6.489168E2,2.7553223E2,2.8542578E2,1.8356999E2,1.8380664E2,3.973911E2,3.296778E3,9.617189E3,5.9707227E3,2.4713398E3,2.0599712E3,6.049199E2,5.0421045E2,1.2956011E3,1.0438281E3,4.01427E1,2.4964258E2,1.803367E3,4.4381104E2,1.345957E2,9.370983E0,3.2038813E0,2.917704E1,1.1568826E2,1.0101561E1,9.831314E0,3.9213257E0,5.005493E-1,2.9935303E0,1.3483276E0,0E0,0E0,0E0,0E0,0E0,0E0,0E0,0E0,0E0,0E0,0E0,0E0,0E0,0E0,0E0,0E0,0E0,0E0,0E0,0E0,0E0,0E0,0E0,0E0,0E0,0E0,0E0,0E0,0E0,0E0,0E0,0E0,0E0,0E0,0E0,0E0,0E0,0E0,0E0,0E0,0E0,0E0,0E0,0E0,0E0,0E0,0E0,0E0,0E0,0E0,0E0,0E0,0E0,0E0,0E0,0E0,0E0,0E0,0E0,0E0,0E0,0E0,0E0,0E0],"parents":[2147483647,0,0,1,1,2,2,3,3,4,4,5,5,6,6,7,7,8,8,9,9,10,10,11,11,12,12,13,13,14,14,15,15,16,16,17,17,18,18,19,19,20,20,21,21,22,22,23,23,24,24,25,25,26,26,27,27,28,28,29,29,30,30,31,31,32,32,33,33,34,34,35,35,36,36,37,37,38,38,39,39,40,40,41,41,42,42,43,43,44,44,45,45,46,46,47,47,48,48,49,49,50,50,51,51,52,52,53,53,54,54,55,55,56,56,57,57,58,58,59,59,60,60,61,61,62,62],"right_children":[2,4,6,8,10,12,14,16,18,20,22,24,26,28,30,32,34,36,38,40,42,44,46,48,50,52,54,56,58,60,62,64,66,68,70,72,74,76,78,80,82,84,86,88,90,92,94,96,98,100,102,104,106,108,110,112,114,116,118,120,122,124,126,-1,-1,-1,-1,-1,-1,-1,-1,-1,-1,-1,-1,-1,-1,-1,-1,-1,-1,-1,-1,-1,-1,-1,-1,-1,-1,-1,-1,-1,-1,-1,-1,-1,-1,-1,-1,-1,-1,-1,-1,-1,-1,-1,-1,-1,-1,-1,-1,-1,-1,-1,-1,-1,-1,-1,-1,-1,-1,-1,-1,-1,-1,-1,-1],"split_conditions":[3.1318E4,1.2962963E-1,6.54321E-1,1.3411E4,5.308642E-1,3.5849E4,1E0,6.58E2,4.476777E-3,7.834359E-3,5.94E2,1E0,1E0,5.321573E6,5.313352E-1,8.024691E-2,2.518927E6,1E0,7.2747623E-3,2.882711E6,1.519E3,6.9135803E-1,2.167E3,1E0,1.4814815E-1,6.155568E-3,3.6296E4,3.2093E4,5.753961E6,5.489529E6,3.808719E6,1E0,1.1191942E-3,7.4074075E-2,8.407E3,7.4074075E-2,1E0,3.7037037E-2,1E0,9.8E1,9.513E3,3.134751E6,1E0,5.493827E-1,1E0,3.220179E6,1.3125E4,7.2747623E-3,4.567534E6,1E0,3.1952E4,2.2383884E-3,7.2747623E-3,4.696756E6,9.9727523E-1,5.640327E-1,3.3244E4,9.373297E-1,1E0,3.839731E6,4.6866485E-1,7.275204E-1,4.009193E6,-8.879736E-2,-2.4178047E-1,-3.9932284E-1,-2.0807157E-1,-7.4712455E-2,-2.8564988E-3,-1.5802556E-1,-7.9975665E-2,-1.538421E-1,-5.9804555E-2,8.6122684E-2,-3.0869836E-1,-2.5810283E-1,-1.8160892E-1,-1.7402714E-1,-5.3024124E-2,1.3371615E-1,-5.8425833E-3,-1.0697856E-1,-6.506336E-3,3.4340456E-2,-7.404276E-2,5.7668805E-2,1.5622173E-1,2.4161083E-1,6.704718E-2,2.3985197E-1,-6.248312E-2,1.6894707E-2,-8.449584E-2,9.0619676E-2,1.4823922E-2,-1.0815307E-1,-5.224422E-2,1.4991562E-1,2.3945642E-1,-1.8717569E-1,-4.047516E-3,-1.1232968E-1,1.025076E-1,-2.3939373E-1,-5.0626166E-2,-2.7166876E-1,-2.045708E-1,-1.0620333E-1,-3.271377E-2,3.6805578E-2,3.7933508E-1,-4.404895E-2,4.9950685E-2,-3.0959E-1,-5.874718E-2,6.0940664E-2,2.987932E-1,-7.0153065E-2,2.0562041E-1,2.2049227E-1,2.5997683E-1,3.1402498E-1,3.7582448E-1,2.6667058E-1,3.0018148E-1,3.9017662E-1,3.28887E-1],"split_indices":[0,4,4,0,4,0,14,0,5,5,0,33,43,1,2,4,1,24,5,1,0,4,0,39,4,5,0,0,1,1,1,9,5,4,0,4,25,4,40,0,0,1,43,4,15,1,0,5,1,42,0,5,5,1,2,2,0,2,9,1,2,2,1,0,0,0,0,0,0,0,0,0,0,0,0,0,0,0,0,0,0,0,0,0,0,0,0,0,0,0,0,0,0,0,0,0,0,0,0,0,0,0,0,0,0,0,0,0,0,0,0,0,0,0,0,0,0,0,0,0,0,0,0,0,0,0,0],"split_type":[0,0,0,0,0,0,0,0,0,0,0,0,0,0,0,0,0,0,0,0,0,0,0,0,0,0,0,0,0,0,0,0,0,0,0,0,0,0,0,0,0,0,0,0,0,0,0,0,0,0,0,0,0,0,0,0,0,0,0,0,0,0,0,0,0,0,0,0,0,0,0,0,0,0,0,0,0,0,0,0,0,0,0,0,0,0,0,0,0,0,0,0,0,0,0,0,0,0,0,0,0,0,0,0,0,0,0,0,0,0,0,0,0,0,0,0,0,0,0,0,0,0,0,0,0,0,0],"sum_hessian":[2.3185495E6,2.0992455E6,2.1930408E5,1.051211E5,1.9941244E6,2.1294864E5,6.355438E3,6.8266414E4,3.6854688E4,1.8088752E6,1.8524914E5,1.9547692E5,1.7471723E4,2.98445E3,3.3709883E3,5.7517153E3,6.25147E4,1.3871566E4,2.2983123E4,1.1113999E6,6.974754E5,5.3791926E4,1.3145722E5,1.706173E5,2.4859635E4,1.658727E4,8.844515E2,2.2893445E3,6.9510535E2,1.2983901E3,2.0725981E3,2.6721682E3,3.0795469E3,4.613035E4,1.638435E4,1.2764237E4,1.1073292E3,1.1751699E4,1.1231424E4,7.195238E5,3.9187606E5,2.7258644E5,4.2488897E5,3.3278375E4,2.051355E4,2.740082E4,1.040564E5,1.687018E5,1.9154893E3,5.532003E3,1.9327633E4,5.0709365E3,1.1516334E4,6.3190094E2,2.5255048E2,1.3022649E3,9.8707965E2,2.768994E2,4.1820593E2,1.0925096E3,2.0588048E2,1.2502233E3,8.2237494E2,2.105146E3,5.670224E2,4.765603E2,2.6029866E3,2.6262404E4,1.9867945E4,7.569491E3,8.814859E3,8.289549E3,4.474688E3,9.896314E2,1.17697815E2,6.973241E3,4.778458E3,7.6389883E3,3.592435E3,1.5570122E4,7.039537E5,1.2671924E5,2.6515684E5,2.1443734E5,5.8149098E4,4.0060103E5,2.4287908E4,8.013537E3,2.5264838E4,1.9899943E4,6.136064E2,2.1871396E4,5.529424E3,7.641903E4,2.7637367E4,1.2956627E5,3.913553E4,1.1745101E3,7.409791E2,4.752059E3,7.799437E2,4.6204614E3,1.4707171E4,3.3972703E3,1.6736661E3,7.179777E3,4.336557E3,3.449786E2,2.8692236E2,2.5105453E2,1.4959441E0,4.5716763E2,8.450973E2,2.0945291E2,7.776268E2,2.6066266E2,1.6236761E1,1.1521267E1,4.0668466E2,6.5814294E2,4.3436664E2,1.5172766E2,5.41528E1,5.8860333E2,6.6161993E2,6.6559364E1,7.558156E2],"tree_param":{"num_deleted":"0","num_feature":"49","num_nodes":"127","size_leaf_vector":"1"}},{"base_weights":[-1.5389675E-3,1.525777E-2,-2.583076E-1,-2.4578437E-1,2.9687732E-2,-2.1929461E-1,-5.694425E-1,-1.5111391E-1,-3.351675E-1,1.6961938E-2,2.9745647E-1,-2.4201712E-1,2.8755653E-1,-5.96973E-1,-9.68178E-2,-2.8131026E-1,-5.7927415E-2,-1.9860004E-1,-4.5743227E-1,-1.985142E-2,1.3212276E-1,5.1697105E-1,2.280216E-1,-7.1165824E-1,-2.2628264E-1,6.3657117E-1,-8.307215E-1,-4.5630512E-1,-6.6122735E-1,-1.7613666E-1,9.469092E-2,-3.127111E-1,2.535357E-1,-8.233693E-2,7.112295E-1,-2.649989E-1,9.619917E-2,-5.478826E-1,-3.1753764E-1,4.4740357E-2,-5.8604166E-2,3.4783995E-1,5.713282E-2,1.9227885E-1,6.1320525E-1,2.0226856E-1,8.399032E-1,-3.5130242E-1,-7.8324527E-1,5.498537E-1,-2.4099475E-1,-9.851944E-2,9.4632256E-1,-6.1268646E-1,-1.0871453E0,-6.378286E-1,-1.2061446E-1,-7.422745E-1,-5.323047E-1,-3.7007448E-1,-1.2456916E-1,-5.5098306E-2,1.7260154E-1,-7.638461E-2,-1.6556641E-1,-1.19515575E-1,1.8140405E-1,-5.1026274E-2,5.167706E-2,2.2486699E-1,5.4835185E-2,-9.979261E-2,2.6325127E-2,-3.1797014E-2,1.7107268E-1,-1.7321974E-1,7.878415E-3,-6.049522E-2,-1.3918267E-1,2.6909046E-2,-2.692015E-2,-6.777982E-2,-4.2369654E-3,3.2518767E-2,1.5361921E-1,1.0666565E-1,9.703999E-3,1.5801913E-1,8.408999E-3,2.0615624E-1,1.3912782E-1,5.3461242E-2,1.9911994E-1,-8.197938E-2,3.0338365E-1,-2.8526735E-1,-9.106471E-2,-2.4830864E-1,-9.0046845E-2,-5.000675E-2,4.223726E-1,-4.8965592E-2,-9.3966335E-2,-1.3617949E-1,1.843755E-1,3.947994E-1,1.9950257E-1,-1.8724975E-1,1.6989946E-1,-3.4405997E-1,-2.824163E-1,-2.3897831E-1,-1.4702049E-1,-3.350985E-1,-1.6818851E-2,-2.2918238E-1,-9.2667446E-2,6.6916086E-2,-1.6728354E-1,7.208054E-2,-1.23095386E-1,-5.0764825E-2,9.2384875E-2,1.1322775E-2,-1.1187994E-1,1.3952033E-1,1.1288494E-2],"categories":[],"categories_nodes":[],"categories_segments":[],"categories_sizes":[],"default_left":[0,0,0,0,0,1,1,0,0,0,0,0,0,0,0,0,1,0,0,0,0,0,1,0,0,0,0,0,0,0,0,0,0,0,0,0,0,0,0,0,0,0,0,0,0,0,0,0,0,1,0,0,0,0,0,0,0,1,0,0,0,0,0,0,0,0,0,0,0,0,0,0,0,0,0,0,0,0,0,0,0,0,0,0,0,0,0,0,0,0,0,0,0,0,0,0,0,0,0,0,0,0,0,0,0,0,0,0,0,0,0,0,0,0,0,0,0,0,0,0,0,0,0,0,0,0,0],"id":2,"left_children":[1,3,5,7,9,11,13,15,17,19,21,23,25,27,29,31,33,35,37,39,41,43,45,47,49,51,53,55,57,59,61,63,65,67,69,71,73,75,77,79,81,83,85,87,89,91,93,95,97,99,101,103,105,107,109,111,113,115,117,119,121,123,125,-1,-1,-1,-1,-1,-1,-1,-1,-1,-1,-1,-1,-1,-1,-1,-1,-1,-1,-1,-1,-1,-1,-1,-1,-1,-1,-1,-1,-1,-1,-1,-1,-1,-1,-1,-1,-1,-1,-1,-1,-1,-1,-1,-1,-1,-1,-1,-1,-1,-1,-1,-1,-1,-1,-1,-1,-1,-1,-1,-1,-1,-1,-1,-1],"loss_changes":[9.967825E3,8.171289E3,1.7223594E3,9.615005E2,7.00474E3,1.4523052E3,2.0565771E2,6.6952856E2,9.7583057E2,8.319431E3,1.4213877E3,8.916538E2,2.1123652E3,1.3473145E2,1.3254208E1,3.8670984E2,6.039628E2,5.4048645E2,3.9003418E2,3.7221895E3,7.689634E3,7.0012695E2,1.116324E3,1.00637085E2,1.33354E3,9.3919714E2,7.13161E1,2.8556927E2,1.0673828E2,6.120167E0,2.9956348E0,3.0200903E2,2.926091E2,6.965534E2,1.9904114E1,5.37745E2,4.8661453E2,3.1738232E2,2.0539624E2,3.3710562E3,6.91755E3,4.821717E3,2.609058E3,2.8151907E2,1.9080371E2,7.5493555E2,5.4613293E2,1.8326126E1,6.981262E1,1.3360603E3,6.4373096E2,3.1039856E2,3.0089478E2,9.802063E0,4.059326E0,7.097827E1,1.0583273E2,5.8854492E1,7.58457E1,3.2671585E0,9.486719E0,2.6199248E0,6.6366982E0,0E0,0E0,0E0,0E0,0E0,0E0,0E0,0E0,0E0,0E0,0E0,0E0,0E0,0E0,0E0,0E0,0E0,0E0,0E0,0E0,0E0,0E0,0E0,0E0,0E0,0E0,0E0,0E0,0E0,0E0,0E0,0E0,0E0,0E0,0E0,0E0,0E0,0E0,0E0,0E0,0E0,0E0,0E0,0E0,0E0,0E0,0E0,0E0,0E0,0E0,0E0,0E0,0E0,0E0,0E0,0E0,0E0,0E0,0E0,0E0,0E0,0E0,0E0,0E0],"parents":[2147483647,0,0,1,1,2,2,3,3,4,4,5,5,6,6,7,7,8,8,9,9,10,10,11,11,12,12,13,13,14,14,15,15,16,16,17,17,18,18,19,19,20,20,21,21,22,22,23,23,24,24,25,25,26,26,27,27,28,28,29,29,30,30,31,31,32,32,33,33,34,34,35,35,36,36,37,37,38,38,39,39,40,40,41,41,42,42,43,43,44,44,45,45,46,46,47,47,48,48,49,49,50,50,51,51,52,52,53,53,54,54,55,55,56,56,57,57,58,58,59,59,60,60,61,61,62,62],"right_children":[2,4,6,8,10,12,14,16,18,20,22,24,26,28,30,32,34,36,38,40,42,44,46,48,50,52,54,56,58,60,62,64,66,68,70,72,74,76,78,80,82,84,86,88,90,92,94,96,98,100,102,104,106,108,110,112,114,116,118,120,122,124,126,-1,-1,-1,-1,-1,-1,-1,-1,-1,-1,-1,-1,-1,-1,-1,-1,-1,-1,-1,-1,-1,-1,-1,-1,-1,-1,-1,-1,-1,-1,-1,-1,-1,-1,-1,-1,-1,-1,-1,-1,-1,-1,-1,-1,-1,-1,-1,-1,-1,-1,-1,-1,-1,-1,-1,-1,-1,-1,-1,-1,-1,-1,-1,-1],"split_conditions":[3.2438E4,1.3580246E-1,3.5849E4,3.9171795E-3,6.481481E-1,1E0,1E0,1E0,1E0,1.3989927E-2,5.13E2,3.0864198E-2,1E0,6.155568E-3,3.6296E4,1E0,1E0,1E0,7.4074075E-2,4.55516E5,1.45495245E-2,9.8E1,1E0,6.155568E-3,4.3209877E-2,5.0363736E-3,3.4019E4,2.2383884E-3,7.2747623E-3,1.849086E6,5.9128064E-1,1.0493827E-1,1.6787912E-3,1.1111111E-1,5.489529E6,1E0,8.024691E-2,3.6373813E-2,9.259259E-2,1.0218E4,3.701E3,1E0,4.7E1,1.9E1,1.909242E6,3.2093E4,5.03E3,3.3018E4,8.393956E-3,1E0,3.3654E4,3.428E4,3.2948E4,6.767463E6,5.356891E6,5.595971E-4,3.7037037E-2,1E0,4.9382716E-2,4.4022E4,9.128065E-1,5.753961E6,7.1934605E-1,-7.638461E-2,-1.6556641E-1,-1.19515575E-1,1.8140405E-1,-5.1026274E-2,5.167706E-2,2.2486699E-1,5.4835185E-2,-9.979261E-2,2.6325127E-2,-3.1797014E-2,1.7107268E-1,-1.7321974E-1,7.878415E-3,-6.049522E-2,-1.3918267E-1,2.6909046E-2,-2.692015E-2,-6.777982E-2,-4.2369654E-3,3.2518767E-2,1.5361921E-1,1.0666565E-1,9.703999E-3,1.5801913E-1,8.408999E-3,2.0615624E-1,1.3912782E-1,5.3461242E-2,1.9911994E-1,-8.197938E-2,3.0338365E-1,-2.8526735E-1,-9.106471E-2,-2.4830864E-1,-9.0046845E-2,-5.000675E-2,4.223726E-1,-4.8965592E-2,-9.3966335E-2,-1.3617949E-1,1.843755E-1,3.947994E-1,1.9950257E-1,-1.8724975E-1,1.6989946E-1,-3.4405997E-1,-2.824163E-1,-2.3897831E-1,-1.4702049E-1,-3.350985E-1,-1.6818851E-2,-2.2918238E-1,-9.2667446E-2,6.6916086E-2,-1.6728354E-1,7.208054E-2,-1.23095386E-1,-5.0764825E-2,9.2384875E-2,1.1322775E-2,-1.1187994E-1,1.3952033E-1,1.1288494E-2],"split_indices":[0,4,0,5,4,30,43,35,12,5,0,4,12,5,0,28,46,27,4,1,5,0,42,5,4,5,0,5,5,1,2,4,5,4,1,15,4,5,4,0,0,31,0,0,1,0,0,0,5,18,0,0,0,1,1,5,4,15,4,1,2,1,2,0,0,0,0,0,0,0,0,0,0,0,0,0,0,0,0,0,0,0,0,0,0,0,0,0,0,0,0,0,0,0,0,0,0,0,0,0,0,0,0,0,0,0,0,0,0,0,0,0,0,0,0,0,0,0,0,0,0,0,0,0,0,0,0],"split_type":[0,0,0,0,0,0,0,0,0,0,0,0,0,0,0,0,0,0,0,0,0,0,0,0,0,0,0,0,0,0,0,0,0,0,0,0,0,0,0,0,0,0,0,0,0,0,0,0,0,0,0,0,0,0,0,0,0,0,0,0,0,0,0,0,0,0,0,0,0,0,0,0,0,0,0,0,0,0,0,0,0,0,0,0,0,0,0,0,0,0,0,0,0,0,0,0,0,0,0,0,0,0,0,0,0,0,0,0,0,0,0,0,0,0,0,0,0,0,0,0,0,0,0,0,0,0,0],"sum_hessian":[2.3111765E6,2.1692728E6,1.4190388E5,1.13631445E5,2.0556412E6,1.2609466E5,1.580922E4,5.5184875E4,5.8446566E4,1.9623796E6,9.326166E4,1.2068479E5,5.4098667E3,1.49387705E4,8.704488E2,2.3020107E4,3.216477E4,2.760969E4,3.0836877E4,1.4870246E6,4.75355E5,2.240933E4,7.085233E4,3.9108196E3,1.1677397E5,4.1233877E3,1.2864789E3,4.6866655E3,1.0252105E4,6.155721E2,2.5487668E2,2.1743936E4,1.2761719E3,3.117627E4,9.884991E2,2.2534295E4,5.0753945E3,1.872629E4,1.2110589E4,5.576133E5,9.294113E5,1.2262021E5,3.5273478E5,5.1240137E3,1.7285314E4,6.799199E4,2.8603372E3,6.4912976E2,3.26169E3,2.1716638E3,1.14602305E5,1.2226119E3,2.900776E3,6.971161E2,5.8936273E2,3.0412312E3,1.6454344E3,6.291928E3,3.9601768E3,1.2800134E2,4.8757074E2,8.730973E1,1.6756694E2,1.7496197E4,4.2477363E3,4.4670413E2,8.294677E2,2.3185332E4,7.9909385E3,9.212633E2,6.723578E1,1.890847E4,3.625825E3,3.5584275E3,1.5169668E3,1.7810643E4,9.1564557E2,6.7611562E3,5.3494326E3,4.179032E5,1.3971011E5,1.9517972E5,7.3423156E5,4.988618E4,7.273402E4,2.7049695E4,3.256851E5,1.6868864E3,3.4371274E3,1.1559342E4,5.7259736E3,6.4623402E4,3.3685894E3,3.8152856E2,2.4788086E3,4.6490116E1,6.0263965E2,2.9862087E3,2.754812E2,1.1838568E3,9.8780707E2,5.5182695E4,5.941961E4,8.161868E2,4.0642517E2,1.2519315E3,1.6488444E3,6.908602E2,6.255903E0,4.1319592E2,1.7616682E2,1.4639028E3,1.5773282E3,9.912323E1,1.5463112E3,5.9916187E3,3.003098E2,1.281249E2,3.832052E3,7.610353E0,1.2039099E2,4.4250208E2,4.5068687E1,6.825377E1,1.9055962E1,5.2140617E1,1.1542633E2],"tree_param":{"num_deleted":"0","num_feature":"49","num_nodes":"127","size_leaf_vector":"1"}},{"base_weights":[-1.551976E-3,2.9942604E-2,-9.090566E-2,6.2088743E-2,-9.462463E-2,-2.1384992E-1,-2.9147848E-2,4.341387E-2,2.1803105E-1,-7.359861E-2,-2.9069746E-1,-2.4341176E-1,8.674026E-2,-4.7968198E-3,-2.2379199E-1,-2.3602536E-2,9.544079E-2,3.3871773E-1,1.4875619E-1,-8.929335E-2,2.4595477E-1,-2.638951E-1,-6.3061273E-1,-2.8438208E-1,-3.4212574E-2,6.628633E-1,-2.0007966E-2,-5.75395E-2,9.4146386E-2,-1.9458628E-1,-5.996612E-1,-2.883001E-2,8.174786E-1,1.03431076E-1,-2.9257876E-1,2.981334E-1,6.17168E-1,-2.2059184E-1,1.7991067E-1,-2.1263953E-1,-3.9102353E-2,3.5805818E-1,-5.340848E-1,-2.1715008E-1,-5.231639E-1,-8.2047516E-1,-2.4555603E-1,-4.282856E-1,-1.9942074E-1,2.564315E-1,-8.7993994E-2,1.09485805E-1,1.2144632E0,-1.7363892E-1,3.0963895E-1,4.0404502E-2,-1.2784363E-1,1.0342683E-1,-7.1801406E-1,-1.3916261E-1,-4.2383724E-1,-6.957038E-1,9.613029E-2,-1.0141522E-2,2.0860995E-1,-5.377312E-2,4.2981568E-1,2.8945288E-2,1.5534799E-1,-1.2762904E-1,-2.1379752E-2,7.1712665E-2,1.3880709E-1,1.3434671E-1,2.3506089E-1,-8.767535E-2,1.3201539E-1,4.6187676E-2,1.1977251E-1,-7.2947845E-2,1.4486808E-1,5.649287E-2,-2.1727506E-2,5.657951E-2,3.125764E-1,-2.2529598E-1,-5.393993E-3,-5.007046E-2,-1.4025338E-1,-2.590455E-1,-1.12618744E-1,-2.5887245E-1,-8.836027E-2,-2.0438972E-1,1.3845293E-1,1.7226209E-1,-1.3310586E-1,-6.994667E-2,3.332794E-2,4.1341104E-2,1.4207335E-1,-1.9724166E-2,-1.2841824E-1,1.4157528E-1,-6.543361E-2,3.7507936E-1,2.7684534E-1,-6.479776E-2,1.15098454E-1,6.546009E-2,2.607339E-1,8.700163E-3,1.9072576E-1,-4.1214656E-2,3.965611E-1,2.5412548E-2,1.6451673E-1,-3.900598E-1,-2.0517586E-1,-2.7942942E-2,-1.4520398E-1,-1.3514332E-1,-1.1809871E-2,-2.3355739E-1,-1.2506871E-1,-1.5890832E-1,1.0915124E-1],"categories":[],"categories_nodes":[],"categories_segments":[],"categories_sizes":[],"default_left":[0,0,0,0,0,0,0,0,0,1,1,0,0,0,1,1,1,1,0,0,0,0,0,0,0,0,0,0,1,0,0,1,0,0,0,0,0,1,1,1,0,0,0,0,0,0,0,0,0,0,1,0,0,1,1,0,1,1,0,0,1,0,0,0,0,0,0,0,0,0,0,0,0,0,0,0,0,0,0,0,0,0,0,0,0,0,0,0,0,0,0,0,0,0,0,0,0,0,0,0,0,0,0,0,0,0,0,0,0,0,0,0,0,0,0,0,0,0,0,0,0,0,0,0,0,0,0],"id":3,"left_children":[1,3,5,7,9,11,13,15,17,19,21,23,25,27,29,31,33,35,37,39,41,43,45,47,49,51,53,55,57,59,61,63,65,67,69,71,73,75,77,79,81,83,85,87,89,91,93,95,97,99,101,103,105,107,109,111,113,115,117,119,121,123,125,-1,-1,-1,-1,-1,-1,-1,-1,-1,-1,-1,-1,-1,-1,-1,-1,-1,-1,-1,-1,-1,-1,-1,-1,-1,-1,-1,-1,-1,-1,-1,-1,-1,-1,-1,-1,-1,-1,-1,-1,-1,-1,-1,-1,-1,-1,-1,-1,-1,-1,-1,-1,-1,-1,-1,-1,-1,-1,-1,-1,-1,-1,-1,-1],"loss_changes":[6.484216E3,6.82204E3,4.5593623E3,3.943662E3,1.4406965E3,1.784168E3,1.8945266E3,4.2166353E3,1.2107827E3,1.5829595E3,3.0818286E2,1.5667969E3,1.1057091E3,1.8539578E3,4.877815E2,2.323884E3,2.1108389E3,5.966572E2,1.058824E3,1.8624902E3,1.2922947E3,3.8011792E2,1.8059009E2,1.8688916E3,4.6800662E2,8.577573E2,7.6828455E2,1.5957047E3,9.311383E2,5.239618E2,2.1417615E2,1.8925648E3,2.0022695E3,1.9202988E3,4.0386633E2,4.4813867E2,1.8890845E2,3.3899866E2,4.829431E2,1.847166E3,1.6204535E3,1.4970736E3,2.0788025E2,3.3434045E2,2.4064539E2,3.669983E1,2.5236926E2,8.7637695E2,1.00689136E3,1.2036536E2,1.9111006E2,1.6681392E2,1.354126E1,2.4432614E2,2.46521E2,6.574169E2,1.8656375E3,1.017204E3,2.6815063E1,5.2705884E2,8.221924E1,6.468848E1,6.5447975E1,0E0,0E0,0E0,0E0,0E0,0E0,0E0,0E0,0E0,0E0,0E0,0E0,0E0,0E0,0E0,0E0,0E0,0E0,0E0,0E0,0E0,0E0,0E0,0E0,0E0,0E0,0E0,0E0,0E0,0E0,0E0,0E0,0E0,0E0,0E0,0E0,0E0,0E0,0E0,0E0,0E0,0E0,0E0,0E0,0E0,0E0,0E0,0E0,0E0,0E0,0E0,0E0,0E0,0E0,0E0,0E0,0E0,0E0,0E0,0E0,0E0,0E0,0E0,0E0],"parents":[2147483647,0,0,1,1,2,2,3,3,4,4,5,5,6,6,7,7,8,8,9,9,10,10,11,11,12,12,13,13,14,14,15,15,16,16,17,17,18,18,19,19,20,20,21,21,22,22,23,23,24,24,25,25,26,26,27,27,28,28,29,29,30,30,31,31,32,32,33,33,34,34,35,35,36,36,37,37,38,38,39,39,40,40,41,41,42,42,43,43,44,44,45,45,46,46,47,47,48,48,49,49,50,50,51,51,52,52,53,53,54,54,55,55,56,56,57,57,58,58,59,59,60,60,61,61,62,62],"right_children":[2,4,6,8,10,12,14,16,18,20,22,24,26,28,30,32,34,36,38,40,42,44,46,48,50,52,54,56,58,60,62,64,66,68,70,72,74,76,78,80,82,84,86,88,90,92,94,96,98,100,102,104,106,108,110,112,114,116,118,120,122,124,126,-1,-1,-1,-1,-1,-1,-1,-1,-1,-1,-1,-1,-1,-1,-1,-1,-1,-1,-1,-1,-1,-1,-1,-1,-1,-1,-1,-1,-1,-1,-1,-1,-1,-1,-1,-1,-1,-1,-1,-1,-1,-1,-1,-1,-1,-1,-1,-1,-1,-1,-1,-1,-1,-1,-1,-1,-1,-1,-1,-1,-1,-1,-1,-1],"split_conditions":[3.808719E6,1.708E4,9.253E3,5.0617284E-1,3.3654E4,3.0218244E-2,3.3654E4,7.2747623E-3,8.13E2,1E0,1E0,3.3950618E-1,3.6373813E-2,7.2747623E-3,1E0,1E0,1E0,1E0,1.195E3,2.1797E4,3.0296E4,1.2870733E-2,1.4814815E-1,1E0,3.87E2,2.246E3,1.2311136E-1,6.715165E-3,1E0,3.5849E4,1E0,1E0,9.776E3,1.6417E4,1E0,7.222222E-1,4.68E2,1E0,1E0,1E0,2.2961E4,1E0,1E0,3.5849E4,3.4612E4,1E0,1E0,5.595971E-4,1.5109122E-2,1.89E2,1E0,3.5254616E-2,6.070727E6,1E0,1E0,7.839506E-1,1E0,1E0,2.1797E4,1.2870733E-2,1E0,1E0,3.428E4,-1.0141522E-2,2.0860995E-1,-5.377312E-2,4.2981568E-1,2.8945288E-2,1.5534799E-1,-1.2762904E-1,-2.1379752E-2,7.1712665E-2,1.3880709E-1,1.3434671E-1,2.3506089E-1,-8.767535E-2,1.3201539E-1,4.6187676E-2,1.1977251E-1,-7.2947845E-2,1.4486808E-1,5.649287E-2,-2.1727506E-2,5.657951E-2,3.125764E-1,-2.2529598E-1,-5.393993E-3,-5.007046E-2,-1.4025338E-1,-2.590455E-1,-1.12618744E-1,-2.5887245E-1,-8.836027E-2,-2.0438972E-1,1.3845293E-1,1.7226209E-1,-1.3310586E-1,-6.994667E-2,3.332794E-2,4.1341104E-2,1.4207335E-1,-1.9724166E-2,-1.2841824E-1,1.4157528E-1,-6.543361E-2,3.7507936E-1,2.7684534E-1,-6.479776E-2,1.15098454E-1,6.546009E-2,2.607339E-1,8.700163E-3,1.9072576E-1,-4.1214656E-2,3.965611E-1,2.5412548E-2,1.6451673E-1,-3.900598E-1,-2.0517586E-1,-2.7942942E-2,-1.4520398E-1,-1.3514332E-1,-1.1809871E-2,-2.3355739E-1,-1.2506871E-1,-1.5890832E-1,1.0915124E-1],"split_indices":[1,0,0,4,0,5,0,5,0,35,38,4,5,5,38,8,18,34,0,0,0,5,4,33,0,0,5,5,19,0,44,39,0,0,11,4,0,45,7,16,0,19,31,0,0,15,6,5,5,0,33,5,1,27,40,4,8,46,0,5,43,27,0,0,0,0,0,0,0,0,0,0,0,0,0,0,0,0,0,0,0,0,0,0,0,0,0,0,0,0,0,0,0,0,0,0,0,0,0,0,0,0,0,0,0,0,0,0,0,0,0,0,0,0,0,0,0,0,0,0,0,0,0,0,0,0,0],"split_type":[0,0,0,0,0,0,0,0,0,0,0,0,0,0,0,0,0,0,0,0,0,0,0,0,0,0,0,0,0,0,0,0,0,0,0,0,0,0,0,0,0,0,0,0,0,0,0,0,0,0,0,0,0,0,0,0,0,0,0,0,0,0,0,0,0,0,0,0,0,0,0,0,0,0,0,0,0,0,0,0,0,0,0,0,0,0,0,0,0,0,0,0,0,0,0,0,0,0,0,0,0,0,0,0,0,0,0,0,0,0,0,0,0,0,0,0,0,0,0,0,0,0,0,0,0,0,0],"sum_hessian":[2.3041398E6,1.7036525E6,6.004874E5,1.3541878E6,3.4946466E5,2.0078083E5,3.9970653E5,1.2093619E6,1.4482589E5,3.1562025E5,3.3844406E4,1.8280306E5,1.7977762E4,3.5526234E5,4.4444203E4,5.2854206E5,6.808199E5,5.2813445E4,9.201244E4,3.008451E5,1.4775171E4,3.137246E4,2.4719443E3,1.5286506E5,2.9938004E4,2.8095164E3,1.5168244E4,2.3173439E5,1.2352795E5,4.1241207E4,3.2029978E3,5.252783E5,3.2637349E3,6.670837E5,1.3736177E4,4.6096867E4,6.7165776E3,7.1570337E3,8.485541E4,8.7010484E4,2.1383461E5,1.291905E4,1.856121E3,2.658173E4,4.7907314E3,1.6548473E3,8.170969E2,5.6746492E4,9.611856E4,4.674177E3,2.5263826E4,1.4030964E3,1.4064198E3,1.0346679E4,4.8215654E3,9.6832664E4,1.3490172E5,1.2213323E5,1.3947272E3,3.3213195E4,8.028009E3,2.814502E3,3.8849582E2,5.216953E5,3.5829739E3,1.2459453E3,2.0177897E3,6.560865E5,1.099718E4,8.582992E3,5.153185E3,3.3919184E4,1.2177682E4,3.3303335E3,3.3862441E3,6.457187E3,6.998468E2,7.587894E4,8.976469E3,8.3353586E4,3.6569006E3,2.7328113E4,1.865065E5,1.0354502E4,2.5645476E3,1.3065612E3,5.495597E2,2.2139836E4,4.441893E3,1.4489186E3,3.3418127E3,1.5307089E3,1.24138466E2,5.0556757E2,3.115294E2,8.580178E2,5.5888473E4,8.66996E4,9.418964E3,3.023864E3,1.650313E3,2.3713697E4,1.5501292E3,6.6592365E2,7.3717285E2,1.2497217E3,1.566981E2,9.616462E3,7.302173E2,4.1454385E3,6.761271E2,9.501372E4,1.8189502E3,1.3402081E5,8.808986E2,1.1720397E5,4.92926E3,7.510645E1,1.3196207E3,2.930393E4,3.9092676E3,7.5076245E3,5.203842E2,2.168539E3,6.459631E2,1.16102325E2,2.723935E2],"tree_param":{"num_deleted":"0","num_feature":"49","num_nodes":"127","size_leaf_vector":"1"}},{"base_weights":[-1.5097042E-3,-1.9419375E-1,7.6087518E-3,-9.6775465E-2,-2.7200136E-1,5.447421E-2,-2.1631062E-2,-1.22217566E-1,4.2975426E-1,-1.3725202E-1,-3.6140686E-1,9.264896E-2,-2.4065522E-2,-9.555584E-2,4.4754604E-3,-1.3861485E-1,3.6027318E-1,-7.061757E-2,8.793284E-1,-3.6855962E-2,-3.1266224E-1,-4.4326642E-1,-2.4661268E-1,7.155999E-2,2.7699667E-1,2.4610962E-1,-4.1123442E-2,-1.2784511E-1,7.337606E-2,-3.7459802E-2,7.424851E-2,-2.632927E-2,-2.0468254E-1,4.5674366E-1,-7.2363514E-1,-2.2493355E-1,3.8601434E-1,7.4765986E-1,9.727667E-1,-1.0128631E-1,2.092405E-1,-4.1049674E-1,-1.0642388E-1,-5.012293E-1,4.307845E-2,-3.6121675E-1,-2.3151185E-2,5.6649555E-2,2.59156E-1,1.9864258E-1,5.0520027E-1,2.9944298E-1,-5.471917E-1,-1.1897027E-1,9.300229E-3,-1.8485595E-1,4.3898527E-2,1.6866378E-1,-5.7217836E-2,5.5928987E-2,-1.0550357E-1,6.524E-2,5.9374875E-1,-3.987094E-2,5.431254E-2,-7.096414E-2,5.6867182E-2,1.6354774E-1,7.238043E-2,-2.6610032E-1,-7.890485E-2,1.4013928E-1,-1.0237704E-1,1.851893E-1,5.573624E-2,-8.337591E-2,2.2759727E-1,2.8047785E-1,3.4375307E-1,-1.1242154E-1,-9.267742E-3,1.078681E-1,-2.724423E-1,-8.9228906E-2,-1.7010978E-1,-5.6515846E-2,9.934805E-2,-1.7324267E-1,-9.885847E-2,-1.2722233E-1,1.3142174E-1,-1.260299E-1,4.702198E-2,5.6905034E-3,-2.4101478E-1,5.662509E-2,1.1146313E-2,6.986027E-2,2.1680798E-1,4.9223755E-2,3.1176183E-1,2.0121202E-1,2.4033153E-2,7.040546E-2,2.6045832E-1,-1.489371E-1,-2.830897E-1,-5.1433787E-2,-2.4995515E-3,-1.1112948E-2,2.5789944E-2,4.53148E-2,-6.2140092E-2,2.236706E-1,-1.2910294E-2,1.21344306E-1,2.0399317E-2,-4.6018586E-2,2.6835248E-2,2.32806E-2,-6.0773935E-2,-3.350655E-2,2.5880966E-1,-5.7547927E-2,2.4998575E-2,3.2979876E-1,7.8324966E-2],"categories":[],"categories_nodes":[],"categories_segments":[],"categories_sizes":[],"default_left":[0,0,0,0,0,0,0,1,1,0,0,1,0,0,0,0,0,0,0,1,0,1,1,0,0,1,0,0,0,0,1,0,1,0,0,0,0,0,0,0,0,0,0,0,0,0,0,0,1,0,0,1,0,0,0,0,0,0,0,1,1,0,0,0,0,0,0,0,0,0,0,0,0,0,0,0,0,0,0,0,0,0,0,0,0,0,0,0,0,0,0,0,0,0,0,0,0,0,0,0,0,0,0,0,0,0,0,0,0,0,0,0,0,0,0,0,0,0,0,0,0,0,0,0,0,0,0],"id":4,"left_children":[1,3,5,7,9,11,13,15,17,19,21,23,25,27,29,31,33,35,37,39,41,43,45,47,49,51,53,55,57,59,61,63,65,67,69,71,73,75,77,79,81,83,85,87,89,91,93,95,97,99,101,103,105,107,109,111,113,115,117,119,121,123,125,-1,-1,-1,-1,-1,-1,-1,-1,-1,-1,-1,-1,-1,-1,-1,-1,-1,-1,-1,-1,-1,-1,-1,-1,-1,-1,-1,-1,-1,-1,-1,-1,-1,-1,-1,-1,-1,-1,-1,-1,-1,-1,-1,-1,-1,-1,-1,-1,-1,-1,-1,-1,-1,-1,-1,-1,-1,-1,-1,-1,-1,-1,-1,-1],"loss_changes":[4.0376885E3,7.870613E2,3.006856E3,6.1774854E2,6.954385E2,2.5276152E3,2.607729E3,3.480453E2,4.7822336E2,4.0551257E2,3.2599658E2,2.20546E3,1.2707869E3,1.9235713E3,2.9217656E3,3.1558148E2,1.5153055E2,7.103795E1,1.3048279E1,2.3225491E2,1.6908295E2,5.7104565E2,3.699964E2,1.4239021E3,1.0411826E3,6.929999E2,1.01808936E3,2.8987744E3,7.041928E2,3.9633672E3,1.7542876E3,3.483167E2,3.3649097E2,2.5176758E1,8.688667E0,6.0794167E1,1.1679928E1,5.5017395E0,3.196289E0,2.2343661E2,5.108141E2,1.0044708E2,9.683618E1,2.3675781E2,3.983849E2,2.9132886E2,1.6100758E2,1.2144692E3,4.565708E2,1.2593309E3,1.0471006E3,5.6495483E2,2.0286774E1,5.9194495E2,5.592697E2,1.6633423E3,4.500778E3,7.7663025E2,3.3676248E2,1.4729163E3,2.1607502E3,1.7134081E3,1.0743511E3,0E0,0E0,0E0,0E0,0E0,0E0,0E0,0E0,0E0,0E0,0E0,0E0,0E0,0E0,0E0,0E0,0E0,0E0,0E0,0E0,0E0,0E0,0E0,0E0,0E0,0E0,0E0,0E0,0E0,0E0,0E0,0E0,0E0,0E0,0E0,0E0,0E0,0E0,0E0,0E0,0E0,0E0,0E0,0E0,0E0,0E0,0E0,0E0,0E0,0E0,0E0,0E0,0E0,0E0,0E0,0E0,0E0,0E0,0E0,0E0,0E0,0E0,0E0,0E0],"parents":[2147483647,0,0,1,1,2,2,3,3,4,4,5,5,6,6,7,7,8,8,9,9,10,10,11,11,12,12,13,13,14,14,15,15,16,16,17,17,18,18,19,19,20,20,21,21,22,22,23,23,24,24,25,25,26,26,27,27,28,28,29,29,30,30,31,31,32,32,33,33,34,34,35,35,36,36,37,37,38,38,39,39,40,40,41,41,42,42,43,43,44,44,45,45,46,46,47,47,48,48,49,49,50,50,51,51,52,52,53,53,54,54,55,55,56,56,57,57,58,58,59,59,60,60,61,61,62,62],"right_children":[2,4,6,8,10,12,14,16,18,20,22,24,26,28,30,32,34,36,38,40,42,44,46,48,50,52,54,56,58,60,62,64,66,68,70,72,74,76,78,80,82,84,86,88,90,92,94,96,98,100,102,104,106,108,110,112,114,116,118,120,122,124,126,-1,-1,-1,-1,-1,-1,-1,-1,-1,-1,-1,-1,-1,-1,-1,-1,-1,-1,-1,-1,-1,-1,-1,-1,-1,-1,-1,-1,-1,-1,-1,-1,-1,-1,-1,-1,-1,-1,-1,-1,-1,-1,-1,-1,-1,-1,-1,-1,-1,-1,-1,-1,-1,-1,-1,-1,-1,-1,-1,-1,-1,-1,-1,-1],"split_conditions":[1.1111111E-1,3.9171795E-3,4.55516E5,3.3244E4,1.0721E4,6.773E3,3.701E3,1E0,1E0,7.94261E5,7.2747623E-3,1E0,1.4197531E-1,3.7654322E-1,7.2747623E-3,6.956E3,1.3125E4,8.6419754E-2,3.839731E6,1E0,7.724E3,1E0,1E0,6.0493827E-1,2.966E3,1E0,5.9673023E-1,1.5109122E-2,8.46E2,6.715165E-3,1E0,5.341E3,1E0,3.521981E6,7.73842E-1,3.3486E4,3.4914E4,1.0407E4,8.310627E-1,6.58E2,6.956E3,1E0,7.834359E-3,6.1728396E-2,3.428E4,2.9099049E-2,1E0,1.39E2,1E0,1E0,5.525E3,1E0,1E0,3.06333E5,7.2747623E-3,4.7E1,2.1264689E-2,5.493827E-1,2.167E3,1E0,1E0,5.081E3,4.214E3,-3.987094E-2,5.431254E-2,-7.096414E-2,5.6867182E-2,1.6354774E-1,7.238043E-2,-2.6610032E-1,-7.890485E-2,1.4013928E-1,-1.0237704E-1,1.851893E-1,5.573624E-2,-8.337591E-2,2.2759727E-1,2.8047785E-1,3.4375307E-1,-1.1242154E-1,-9.267742E-3,1.078681E-1,-2.724423E-1,-8.9228906E-2,-1.7010978E-1,-5.6515846E-2,9.934805E-2,-1.7324267E-1,-9.885847E-2,-1.2722233E-1,1.3142174E-1,-1.260299E-1,4.702198E-2,5.6905034E-3,-2.4101478E-1,5.662509E-2,1.1146313E-2,6.986027E-2,2.1680798E-1,4.9223755E-2,3.1176183E-1,2.0121202E-1,2.4033153E-2,7.040546E-2,2.6045832E-1,-1.489371E-1,-2.830897E-1,-5.1433787E-2,-2.4995515E-3,-1.1112948E-2,2.5789944E-2,4.53148E-2,-6.2140092E-2,2.236706E-1,-1.2910294E-2,1.21344306E-1,2.0399317E-2,-4.6018586E-2,2.6835248E-2,2.32806E-2,-6.0773935E-2,-3.350655E-2,2.5880966E-1,-5.7547927E-2,2.4998575E-2,3.2979876E-1,7.8324966E-2],"split_indices":[4,5,1,0,0,0,0,46,18,1,5,40,4,4,5,0,0,4,1,27,0,44,9,4,0,38,2,5,0,5,28,0,35,1,2,0,0,1,2,0,0,7,5,4,0,5,33,0,24,30,0,34,33,1,5,0,5,4,0,38,8,0,0,0,0,0,0,0,0,0,0,0,0,0,0,0,0,0,0,0,0,0,0,0,0,0,0,0,0,0,0,0,0,0,0,0,0,0,0,0,0,0,0,0,0,0,0,0,0,0,0,0,0,0,0,0,0,0,0,0,0,0,0,0,0,0,0],"split_type":[0,0,0,0,0,0,0,0,0,0,0,0,0,0,0,0,0,0,0,0,0,0,0,0,0,0,0,0,0,0,0,0,0,0,0,0,0,0,0,0,0,0,0,0,0,0,0,0,0,0,0,0,0,0,0,0,0,0,0,0,0,0,0,0,0,0,0,0,0,0,0,0,0,0,0,0,0,0,0,0,0,0,0,0,0,0,0,0,0,0,0,0,0,0,0,0,0,0,0,0,0,0,0,0,0,0,0,0,0,0,0,0,0,0,0,0,0,0,0,0,0,0,0,0,0,0,0],"sum_hessian":[2.2980812E6,1.03838E5,2.1942432E6,4.61094E4,5.77286E4,8.430328E5,1.3512105E6,4.3984805E4,2.1245935E3,2.302641E4,3.470219E4,5.672951E5,2.7573772E5,3.5264297E5,9.9856756E5,4.2539816E4,1.4449884E3,1.0058902E3,1.1187034E3,1.4645351E4,8.381059E3,2.02553E4,1.4446892E4,5.0906103E5,5.8234082E4,1.637445E4,2.5936327E5,2.9605578E5,5.6587188E4,6.2370594E5,3.7486162E5,1.5758611E4,2.6781205E4,1.3274231E3,1.1756529E2,7.5219714E2,2.5369304E2,4.680925E2,6.506109E2,1.1607094E4,3.0382568E3,5.683807E3,2.6972515E3,1.8098305E4,2.1569966E3,9.548994E3,4.8978975E3,4.7158034E5,3.748067E4,4.3351234E4,1.4882847E4,1.5343532E4,1.0309177E3,1.01956266E5,1.5740702E5,2.2227186E5,7.378392E4,3.2715824E4,2.3871363E4,2.628919E5,3.60814E5,3.6847316E5,6.38846E3,1.0409324E4,5.349287E3,2.4778844E4,2.002361E3,9.401316E2,3.872915E2,8.6102135E1,3.1463161E1,1.0780371E2,6.4439343E2,1.16750656E2,1.3694238E2,4.7087708E0,4.6338373E2,5.391385E2,1.1147244E2,2.375376E3,9.231718E3,2.6785884E3,3.5966864E2,3.3017942E3,2.3820127E3,2.27222E3,4.250317E2,1.2531261E4,5.5670444E3,9.881979E2,1.1687987E3,8.574418E3,9.745763E2,4.6479604E3,2.4993694E2,6.064395E4,4.109364E5,3.5470547E4,2.0101268E3,4.164021E4,1.7110232E3,1.0711719E4,4.1711284E3,1.3776366E4,1.5671665E3,9.159508E2,1.14966934E2,6.915539E4,3.2800875E4,9.810487E4,5.9302137E4,1.3824151E4,2.0844772E5,8.132847E3,6.565108E4,9.786725E3,2.29291E4,1.4417255E4,9.454108E3,2.4255697E5,2.0334936E4,3.5852462E5,2.2893882E3,2.4222645E4,3.4425053E5,2.5344038E3,3.854056E3],"tree_param":{"num_deleted":"0","num_feature":"49","num_nodes":"127","size_leaf_vector":"1"}},{"base_weights":[-1.3977189E-3,9.285474E-3,-1.12070456E-1,-6.428524E-3,9.107504E-2,-1.2585182E-1,2.9277435E-1,-5.587576E-2,1.7356776E-2,7.569251E-2,4.0870786E-1,-4.2419425E-1,-1.02879465E-1,-6.167632E-1,5.241255E-1,-8.296123E-2,2.3059139E-1,5.644869E-3,1.8684472E-1,9.183254E-2,-2.1733595E-1,-1.445566E-1,6.134861E-1,-6.9258094E-2,-5.010445E-1,-9.072067E-2,-5.2061516E-1,-5.061242E-1,-8.522356E-1,2.7637404E-1,9.731762E-1,-7.614484E-2,-6.970598E-1,8.6063045E-1,1.2053168E-1,2.8750028E-2,-8.707983E-2,-2.1975178E-1,2.2667436E-1,8.007354E-2,6.081503E-1,-3.2036668E-1,2.4983044E-1,6.667891E-2,-6.1389804E-1,-3.2424825E-1,6.842432E-1,3.388771E-2,-6.3519466E-1,-4.5349044E-1,-1.070975E0,3.8216002E-2,-1.3885161E-1,-4.5085633E-1,-9.2948914E-1,-5.417739E-1,-6.410432E-2,-8.6846787E-1,-3.3975415E-2,3.2914945E-1,-6.370461E-1,8.557119E-1,1.0316553E0,-2.4409926E-2,1.7305858E-1,-3.038343E-1,-1.04663834E-1,3.2030888E-2,3.3247554E-1,1.751379E-2,2.724829E-1,-7.067492E-2,1.0108488E-2,-4.2370338E-2,9.563912E-3,-3.1006979E-2,-1.081144E-1,1.5630561E-1,5.10587E-2,2.682073E-2,-1.0204113E-1,-1.2158419E-1,2.2282785E-1,-7.923547E-2,-1.7996109E-1,-3.0337062E-1,1.2688538E-1,-9.975264E-2,8.192711E-2,-1.5349528E-1,-2.6913753E-1,-5.603258E-2,-2.967268E-1,2.1093082E-1,-2.1399792E-1,-3.324803E-2,7.6195225E-2,-2.1766408E-1,-9.2261806E-2,-8.39054E-2,-1.8383569E-1,-3.3779803E-1,-2.7745223E-1,-9.02885E-3,2.2662838E-1,-2.9984983E-2,-1.3617553E-1,-9.076961E-2,-1.894525E-1,-2.9525137E-1,-1.928733E-1,-1.7307611E-1,-1.02759294E-1,-1.4458124E-1,8.494583E-3,-2.1235533E-1,-2.8128567E-1,1.6248049E-1,-9.88391E-2,3.15124E-2,1.3560185E-1,-2.0588334E-1,7.1863994E-2,2.33695E-1,2.920574E-1,2.731195E-1,3.271926E-1],"categories":[],"categories_nodes":[],"categories_segments":[],"categories_sizes":[],"default_left":[0,1,1,0,0,0,0,0,0,0,0,0,1,0,0,0,0,0,0,0,0,0,0,1,1,0,0,0,0,0,0,0,0,0,0,0,0,0,0,0,0,0,0,0,0,0,0,0,0,0,0,0,0,0,0,0,0,0,0,0,0,0,0,0,0,0,0,0,0,0,0,0,0,0,0,0,0,0,0,0,0,0,0,0,0,0,0,0,0,0,0,0,0,0,0,0,0,0,0,0,0,0,0,0,0,0,0,0,0,0,0,0,0,0,0,0,0,0,0,0,0,0,0,0,0,0,0],"id":5,"left_children":[1,3,5,7,9,11,13,15,17,19,21,23,25,27,29,31,33,35,37,39,41,43,45,47,49,51,53,55,57,59,61,63,65,67,69,71,73,75,77,79,81,83,85,87,89,91,93,95,97,99,101,103,105,107,109,111,113,115,117,119,121,123,125,-1,-1,-1,-1,-1,-1,-1,-1,-1,-1,-1,-1,-1,-1,-1,-1,-1,-1,-1,-1,-1,-1,-1,-1,-1,-1,-1,-1,-1,-1,-1,-1,-1,-1,-1,-1,-1,-1,-1,-1,-1,-1,-1,-1,-1,-1,-1,-1,-1,-1,-1,-1,-1,-1,-1,-1,-1,-1,-1,-1,-1,-1,-1,-1],"loss_changes":[2.7101226E3,2.6866528E3,1.1258545E3,2.0623164E3,1.6460312E3,1.3373884E3,1.3981879E3,4.4189834E3,2.3502222E3,1.5197626E3,1.763148E3,3.805149E2,9.2025525E2,3.4675964E1,5.8898987E2,2.177993E3,3.4113018E3,2.3726243E3,1.2393667E3,1.8490449E3,8.075213E2,4.1689105E2,7.5383203E2,1.4503706E2,3.1032837E2,1.0926577E3,1.4574414E2,1.4450851E1,5.672577E0,1.648212E2,1.2050537E1,1.754737E3,6.2755347E2,1.3655522E3,2.0504985E3,1.1588145E3,1.4231453E3,1.11729614E2,1.1586082E3,1.1673505E3,9.254336E2,2.1592981E2,6.623117E2,2.3908195E2,3.7335785E1,7.271055E1,2.7887012E2,6.6986435E1,1.1116013E1,2.9293457E2,6.053589E0,2.344894E3,1.571367E3,1.1713281E2,1.10563965E1,5.758301E0,2.7067604E0,4.011322E0,1.775685E0,8.885391E1,8.228561E0,4.9516296E0,7.963257E0,0E0,0E0,0E0,0E0,0E0,0E0,0E0,0E0,0E0,0E0,0E0,0E0,0E0,0E0,0E0,0E0,0E0,0E0,0E0,0E0,0E0,0E0,0E0,0E0,0E0,0E0,0E0,0E0,0E0,0E0,0E0,0E0,0E0,0E0,0E0,0E0,0E0,0E0,0E0,0E0,0E0,0E0,0E0,0E0,0E0,0E0,0E0,0E0,0E0,0E0,0E0,0E0,0E0,0E0,0E0,0E0,0E0,0E0,0E0,0E0,0E0,0E0,0E0,0E0],"parents":[2147483647,0,0,1,1,2,2,3,3,4,4,5,5,6,6,7,7,8,8,9,9,10,10,11,11,12,12,13,13,14,14,15,15,16,16,17,17,18,18,19,19,20,20,21,21,22,22,23,23,24,24,25,25,26,26,27,27,28,28,29,29,30,30,31,31,32,32,33,33,34,34,35,35,36,36,37,37,38,38,39,39,40,40,41,41,42,42,43,43,44,44,45,45,46,46,47,47,48,48,49,49,50,50,51,51,52,52,53,53,54,54,55,55,56,56,57,57,58,58,59,59,60,60,61,61,62,62],"right_children":[2,4,6,8,10,12,14,16,18,20,22,24,26,28,30,32,34,36,38,40,42,44,46,48,50,52,54,56,58,60,62,64,66,68,70,72,74,76,78,80,82,84,86,88,90,92,94,96,98,100,102,104,106,108,110,112,114,116,118,120,122,124,126,-1,-1,-1,-1,-1,-1,-1,-1,-1,-1,-1,-1,-1,-1,-1,-1,-1,-1,-1,-1,-1,-1,-1,-1,-1,-1,-1,-1,-1,-1,-1,-1,-1,-1,-1,-1,-1,-1,-1,-1,-1,-1,-1,-1,-1,-1,-1,-1,-1,-1,-1,-1,-1,-1,-1,-1,-1,-1,-1,-1,-1,-1,-1,-1],"split_conditions":[3.1318E4,1E0,1E0,1E0,2.8891E4,3.158E4,1E0,3.4695018E-2,2.7899E4,2.2961E4,1.4814815E-1,3.9171795E-3,1E0,1.2870733E-2,7.2747623E-3,3.0484E4,3.6373813E-2,3.970167E6,1.4197531E-1,2.2297E4,1E0,7.2747623E-3,2.7979854E-3,1E0,1E0,1E0,1E0,6.223648E6,6.32047E6,3.3244E4,5.3678477E-1,1E0,3.0901E4,1.64E2,1E0,6.1728396E-2,1.5417E4,2.9803E4,2.8283E4,9.960828E-2,1E0,1E0,7.2747623E-3,1E0,1E0,1E0,1E0,4.755235E6,5.236745E6,1.4814815E-1,4.614382E6,1.3989927E-2,1.2870733E-2,3.3244E4,5.546482E6,1E0,3.9237058E-1,1.487529E6,5.258856E-1,5.558583E-1,6.070727E6,4.696756E6,1.723669E6,-2.4409926E-2,1.7305858E-1,-3.038343E-1,-1.04663834E-1,3.2030888E-2,3.3247554E-1,1.751379E-2,2.724829E-1,-7.067492E-2,1.0108488E-2,-4.2370338E-2,9.563912E-3,-3.1006979E-2,-1.081144E-1,1.5630561E-1,5.10587E-2,2.682073E-2,-1.0204113E-1,-1.2158419E-1,2.2282785E-1,-7.923547E-2,-1.7996109E-1,-3.0337062E-1,1.2688538E-1,-9.975264E-2,8.192711E-2,-1.5349528E-1,-2.6913753E-1,-5.603258E-2,-2.967268E-1,2.1093082E-1,-2.1399792E-1,-3.324803E-2,7.6195225E-2,-2.1766408E-1,-9.2261806E-2,-8.39054E-2,-1.8383569E-1,-3.3779803E-1,-2.7745223E-1,-9.02885E-3,2.2662838E-1,-2.9984983E-2,-1.3617553E-1,-9.076961E-2,-1.894525E-1,-2.9525137E-1,-1.928733E-1,-1.7307611E-1,-1.02759294E-1,-1.4458124E-1,8.494583E-3,-2.1235533E-1,-2.8128567E-1,1.6248049E-1,-9.88391E-2,3.15124E-2,1.3560185E-1,-2.0588334E-1,7.1863994E-2,2.33695E-1,2.920574E-1,2.731195E-1,3.271926E-1],"split_indices":[0,31,42,12,0,0,38,5,0,0,4,5,25,5,5,0,5,1,4,0,24,5,5,14,44,9,22,1,1,0,2,8,0,0,13,4,0,0,0,5,6,38,5,13,9,13,7,1,1,4,1,5,5,0,1,13,2,1,2,2,1,1,1,0,0,0,0,0,0,0,0,0,0,0,0,0,0,0,0,0,0,0,0,0,0,0,0,0,0,0,0,0,0,0,0,0,0,0,0,0,0,0,0,0,0,0,0,0,0,0,0,0,0,0,0,0,0,0,0,0,0,0,0,0,0,0,0],"split_type":[0,0,0,0,0,0,0,0,0,0,0,0,0,0,0,0,0,0,0,0,0,0,0,0,0,0,0,0,0,0,0,0,0,0,0,0,0,0,0,0,0,0,0,0,0,0,0,0,0,0,0,0,0,0,0,0,0,0,0,0,0,0,0,0,0,0,0,0,0,0,0,0,0,0,0,0,0,0,0,0,0,0,0,0,0,0,0,0,0,0,0,0,0,0,0,0,0,0,0,0,0,0,0,0,0,0,0,0,0,0,0,0,0,0,0,0,0,0,0,0,0,0,0,0,0,0,0],"sum_hessian":[2.29217E6,2.0903868E6,2.0178325E5,1.7534939E6,3.3689288E5,1.9514112E5,6.6421313E3,5.695194E5,1.1839745E6,3.213324E5,1.556046E4,1.3950338E4,1.8119078E5,1.3465637E3,5.2955674E3,5.2032347E5,4.919588E4,1.107449E6,7.6525586E4,3.0455803E5,1.6774389E4,4.203594E3,1.1356865E4,2.4832495E3,1.1467089E4,1.7606731E5,5.1234736E3,9.182601E2,4.2830365E2,3.4137434E3,1.8818241E3,5.1461247E5,5.7109907E3,7.31488E3,4.1881E4,8.865411E5,2.2090781E5,6.827124E3,6.969846E4,2.9777738E5,6.780646E3,1.3743629E4,3.0307603E3,2.8994866E3,1.3041078E3,7.965617E2,1.0560304E4,2.1012268E3,3.8202283E2,1.0585636E4,8.814533E2,4.785909E4,1.2820822E5,4.378544E3,7.4492993E2,8.495191E2,6.874095E1,4.199123E2,8.391359E0,3.227883E3,1.8586032E2,6.306666E2,1.2511576E3,5.1053103E5,4.0814343E3,2.9941042E3,2.7168865E3,1.8089941E3,5.5058857E3,3.8819266E4,3.0617332E3,1.627928E4,8.702619E5,1.5180195E5,6.910585E4,3.7363694E3,3.0907546E3,1.1219372E4,5.8479086E4,2.9131094E5,6.4664604E3,7.9480383E2,5.9858423E3,1.1442781E4,2.3008474E3,3.6525903E2,2.6655012E3,9.880481E2,1.9114384E3,9.6025507E2,3.4385275E2,6.611358E2,1.354259E2,1.0420186E4,1.401182E2,1.2680042E3,8.332227E2,2.984968E2,8.352604E1,5.063569E3,5.522067E3,6.354904E2,2.4596294E2,4.3697957E4,4.1611343E3,1.1411912E5,1.4089102E4,2.4061187E3,1.9724252E3,6.2352136E2,1.2140861E2,7.2052344E2,1.2899568E2,1.1687332E1,5.705362E1,1.2975871E2,2.9015356E2,2.5640266E0,5.827333E0,1.143617E3,2.084266E3,1.7618257E2,9.677754E0,3.8653653E2,2.4413008E2,4.1483304E2,8.363245E2],"tree_param":{"num_deleted":"0","num_feature":"49","num_nodes":"127","size_leaf_vector":"1"}},{"base_weights":[-1.2825114E-3,-4.7797184E-2,1.7882405E-2,-1.7560151E-1,-2.6879488E-2,1.2868743E-1,4.5615737E-3,-2.3744752E-1,6.549238E-2,3.4344584E-1,-5.3180456E-2,7.684894E-2,2.4348606E-1,-8.413785E-2,2.2874704E-2,-1.4521144E-1,-4.346133E-1,5.2486384E-1,2.5700504E-2,-3.0389988E-1,4.8263672E-1,3.6729153E-2,-8.968629E-2,1.5651232E-1,-1.4656445E-1,3.4589744E-1,-4.864816E-3,-1.4175844E-1,9.0274766E-2,-2.214833E-2,8.443439E-2,-1.6848308E-1,2.5697005E-1,-2.8610563E-1,-5.379498E-1,3.4754595E-1,5.752379E-1,-2.2696985E-1,9.811146E-2,1.2238325E-1,-5.1224476E-1,3.540524E-1,8.7492657E-1,8.271876E-2,-1.4485055E-1,-1.1471144E-1,2.7173933E-1,1.133968E-1,5.8363837E-1,2.516575E-1,-2.433987E-1,1.33964E-1,4.546549E-1,-3.7624785E-1,1.594513E-1,-1.5339659E-1,4.5600578E-1,1.6091588E-1,-1.3772547E-1,3.2039244E-2,-7.415537E-2,1.2942992E-1,-9.155511E-2,-8.1731595E-2,-3.4892675E-2,3.2926112E-2,3.314299E-1,-9.524994E-2,1.2429046E-1,-1.4179489E-1,-1.8942021E-1,1.138811E-1,-1.0906849E-2,1.3362937E-1,1.7906623E-1,2.2198435E-2,-1.4628373E-1,1.4326906E-1,-7.7364533E-3,5.9877418E-2,-2.2974071E-1,-1.3770936E-1,-2.2212337E-1,2.000051E-1,1.1884691E-2,-1.8323994E-1,3.5704044E-1,1.5786403E-1,1.9500755E-2,-6.403036E-2,2.637905E-1,-7.799094E-2,-2.351065E-2,4.0259987E-2,2.7887985E-1,6.951084E-2,3.5202957E-3,1.7550245E-2,2.602735E-1,3.4580997E-1,4.6399128E-2,-8.2433656E-2,2.2116466E-1,1.2686981E-1,-1.6160813E-1,1.7917134E-1,1.0069426E-1,-1.784302E-1,-6.875491E-2,6.011659E-2,-5.1625933E-2,-1.7179856E-1,-4.2409085E-2,-2.2375344E-1,1.8661393E-1,8.738243E-2,5.4579424E-3,-4.7567777E-2,2.2794639E-1,1.2741484E-2,-7.0435576E-2,2.6816037E-1,-2.4540551E-2,2.3928946E-2,8.690664E-2,-4.6094008E-2,4.904015E-2],"categories":[],"categories_nodes":[],"categories_segments":[],"categories_sizes":[],"default_left":[0,0,0,0,0,0,0,0,0,0,0,0,1,0,0,1,0,0,0,0,0,1,1,0,0,0,0,0,0,0,0,0,0,1,0,0,0,0,0,0,0,0,0,0,0,0,0,0,0,0,1,0,0,0,0,0,0,0,1,0,0,0,1,0,0,0,0,0,0,0,0,0,0,0,0,0,0,0,0,0,0,0,0,0,0,0,0,0,0,0,0,0,0,0,0,0,0,0,0,0,0,0,0,0,0,0,0,0,0,0,0,0,0,0,0,0,0,0,0,0,0,0,0,0,0,0,0],"id":6,"left_children":[1,3,5,7,9,11,13,15,17,19,21,23,25,27,29,31,33,35,37,39,41,43,45,47,49,51,53,55,57,59,61,63,65,67,69,71,73,75,77,79,81,83,85,87,89,91,93,95,97,99,101,103,105,107,109,111,113,115,117,119,121,123,125,-1,-1,-1,-1,-1,-1,-1,-1,-1,-1,-1,-1,-1,-1,-1,-1,-1,-1,-1,-1,-1,-1,-1,-1,-1,-1,-1,-1,-1,-1,-1,-1,-1,-1,-1,-1,-1,-1,-1,-1,-1,-1,-1,-1,-1,-1,-1,-1,-1,-1,-1,-1,-1,-1,-1,-1,-1,-1,-1,-1,-1,-1,-1,-1],"loss_changes":[2.0399957E3,1.7851189E3,2.3921177E3,1.4003906E3,5.589032E3,1.0350044E3,2.3500288E3,1.3592197E3,3.504783E2,3.4287627E3,1.7585383E3,2.1325723E3,1.3761072E3,2.4881436E3,3.3235881E3,4.7666052E2,3.6541602E2,1.3452698E1,3.228904E2,5.9817694E2,1.5794443E3,1.2920454E3,3.4465815E3,1.6265295E3,1.214564E3,8.829155E2,9.6411633E2,1.2947422E3,9.902665E2,1.9518582E3,4.0112656E3,2.6106396E2,3.475791E2,2.1510455E2,8.5414795E1,4.206566E0,3.0748901E0,3.0840674E2,6.44891E2,1.518202E2,5.4585815E1,2.3187837E3,3.6210537E3,9.6994556E2,2.1964526E3,1.8813394E3,2.232611E3,9.649352E2,1.2074553E3,5.3826794E2,7.7981213E2,2.5254832E3,4.2937305E2,1.555982E2,1.4869019E2,9.2086914E2,7.097496E2,8.7331384E2,2.720762E2,9.441903E2,2.6160264E3,3.2109463E3,1.6332417E3,0E0,0E0,0E0,0E0,0E0,0E0,0E0,0E0,0E0,0E0,0E0,0E0,0E0,0E0,0E0,0E0,0E0,0E0,0E0,0E0,0E0,0E0,0E0,0E0,0E0,0E0,0E0,0E0,0E0,0E0,0E0,0E0,0E0,0E0,0E0,0E0,0E0,0E0,0E0,0E0,0E0,0E0,0E0,0E0,0E0,0E0,0E0,0E0,0E0,0E0,0E0,0E0,0E0,0E0,0E0,0E0,0E0,0E0,0E0,0E0,0E0,0E0,0E0,0E0],"parents":[2147483647,0,0,1,1,2,2,3,3,4,4,5,5,6,6,7,7,8,8,9,9,10,10,11,11,12,12,13,13,14,14,15,15,16,16,17,17,18,18,19,19,20,20,21,21,22,22,23,23,24,24,25,25,26,26,27,27,28,28,29,29,30,30,31,31,32,32,33,33,34,34,35,35,36,36,37,37,38,38,39,39,40,40,41,41,42,42,43,43,44,44,45,45,46,46,47,47,48,48,49,49,50,50,51,51,52,52,53,53,54,54,55,55,56,56,57,57,58,58,59,59,60,60,61,61,62,62],"right_children":[2,4,6,8,10,12,14,16,18,20,22,24,26,28,30,32,34,36,38,40,42,44,46,48,50,52,54,56,58,60,62,64,66,68,70,72,74,76,78,80,82,84,86,88,90,92,94,96,98,100,102,104,106,108,110,112,114,116,118,120,122,124,126,-1,-1,-1,-1,-1,-1,-1,-1,-1,-1,-1,-1,-1,-1,-1,-1,-1,-1,-1,-1,-1,-1,-1,-1,-1,-1,-1,-1,-1,-1,-1,-1,-1,-1,-1,-1,-1,-1,-1,-1,-1,-1,-1,-1,-1,-1,-1,-1,-1,-1,-1,-1,-1,-1,-1,-1,-1,-1,-1,-1,-1,-1,-1,-1],"split_conditions":[1.4814815E-1,8.46E2,2.7E2,3.0218244E-2,1.565E3,1.99E2,1.519E3,7.94261E5,3.5254616E-2,1E0,6.715165E-3,1.26E2,1E0,4.6296296E-1,7.2747623E-3,1E0,8.393956E-3,4.386921E-1,3.6373813E-2,5.595971E-3,1.519E3,1E0,1E0,1.19E2,5.0363736E-3,1.5432099E-1,1E0,1.6284275E-1,8.13E2,6.715165E-3,1.45495245E-2,1E0,1E0,1E0,3.521981E6,4.305177E-1,8.1677E4,1.64E2,5.70789E-2,1E0,1E0,1E0,1.5109122E-2,1.699E3,1E0,7.592E3,1E0,4.7E1,1.5109122E-2,1.39E2,1E0,1E0,3.64708E5,7.834359E-3,1E0,3E2,5.13E2,1E0,1E0,3.2948E4,1.535E3,1.3989927E-2,1E0,-8.1731595E-2,-3.4892675E-2,3.2926112E-2,3.314299E-1,-9.524994E-2,1.2429046E-1,-1.4179489E-1,-1.8942021E-1,1.138811E-1,-1.0906849E-2,1.3362937E-1,1.7906623E-1,2.2198435E-2,-1.4628373E-1,1.4326906E-1,-7.7364533E-3,5.9877418E-2,-2.2974071E-1,-1.3770936E-1,-2.2212337E-1,2.000051E-1,1.1884691E-2,-1.8323994E-1,3.5704044E-1,1.5786403E-1,1.9500755E-2,-6.403036E-2,2.637905E-1,-7.799094E-2,-2.351065E-2,4.0259987E-2,2.7887985E-1,6.951084E-2,3.5202957E-3,1.7550245E-2,2.602735E-1,3.4580997E-1,4.6399128E-2,-8.2433656E-2,2.2116466E-1,1.2686981E-1,-1.6160813E-1,1.7917134E-1,1.0069426E-1,-1.784302E-1,-6.875491E-2,6.011659E-2,-5.1625933E-2,-1.7179856E-1,-4.2409085E-2,-2.2375344E-1,1.8661393E-1,8.738243E-2,5.4579424E-3,-4.7567777E-2,2.2794639E-1,1.2741484E-2,-7.0435576E-2,2.6816037E-1,-2.4540551E-2,2.3928946E-2,8.690664E-2,-4.6094008E-2,4.904015E-2],"split_indices":[4,0,0,5,0,0,0,1,5,33,5,0,9,4,5,43,5,2,5,5,0,9,27,0,5,4,7,5,0,5,5,12,7,43,1,2,1,0,5,12,43,38,5,0,20,0,30,0,5,0,16,24,1,5,27,0,0,14,23,0,0,5,14,0,0,0,0,0,0,0,0,0,0,0,0,0,0,0,0,0,0,0,0,0,0,0,0,0,0,0,0,0,0,0,0,0,0,0,0,0,0,0,0,0,0,0,0,0,0,0,0,0,0,0,0,0,0,0,0,0,0,0,0,0,0,0,0],"split_type":[0,0,0,0,0,0,0,0,0,0,0,0,0,0,0,0,0,0,0,0,0,0,0,0,0,0,0,0,0,0,0,0,0,0,0,0,0,0,0,0,0,0,0,0,0,0,0,0,0,0,0,0,0,0,0,0,0,0,0,0,0,0,0,0,0,0,0,0,0,0,0,0,0,0,0,0,0,0,0,0,0,0,0,0,0,0,0,0,0,0,0,0,0,0,0,0,0,0,0,0,0,0,0,0,0,0,0,0,0,0,0,0,0,0,0,0,0,0,0,0,0,0,0,0,0,0,0],"sum_hessian":[2.2884002E6,6.6774125E5,1.620659E6,9.3916516E4,5.738247E5,1.7392355E5,1.4467355E6,7.474322E4,1.9173297E4,3.80505E4,5.357742E5,1.1981951E5,5.4104043E4,2.4758017E5,1.1991552E6,5.092278E4,2.3820436E4,1.5274685E3,1.7645828E4,6.7334663E3,3.1317033E4,1.5471911E5,3.810551E5,8.8325305E4,3.1494197E4,3.8307113E4,1.579693E4,1.8609897E5,6.1481215E4,6.9260444E5,5.0655084E5,4.813793E4,2.7848494E3,9.775528E3,1.4044907E4,3.3968094E2,1.1877876E3,3.9300833E3,1.3715744E4,2.2106956E3,4.522771E3,2.3587463E4,7.729571E3,1.2345227E5,3.1266836E4,3.5638E5,2.4675111E4,8.0228086E4,8.097222E3,6.160032E3,2.5334166E4,1.2992034E4,2.531508E4,4.8450293E3,1.09519E4,1.8254564E5,3.5533193E3,4.6938574E4,1.4542643E4,3.3919166E5,3.5341278E5,4.0341047E5,1.03140375E5,1.6084932E4,3.2053E4,2.3737815E3,4.11068E2,9.356684E3,4.1884537E2,8.271281E3,5.7736255E3,3.1351233E2,2.6168594E1,1.7286963E2,1.01491797E3,1.8242887E3,2.1057947E3,3.3754172E3,1.0340327E4,2.0346067E3,1.7608885E2,3.669883E3,8.5288794E2,1.1827129E4,1.1760334E4,1.3527023E3,6.376868E3,4.741002E3,1.18711266E5,2.9305162E4,1.9616742E3,7.1318766E4,2.8506122E5,2.0409322E4,4.26579E3,3.7078297E4,4.314979E4,2.8420847E3,5.255137E3,5.976024E2,5.5624297E3,2.4549295E4,7.848704E2,9.088504E3,3.9035308E3,1.1514966E4,1.3800113E4,1.9478018E3,2.8972278E3,9.74857E3,1.2033298E3,5.091623E3,1.7745402E5,4.3089355E2,3.1224258E3,2.4531322E4,2.240725E4,1.4213542E4,3.2910013E2,3.2642966E5,1.2761983E4,2.768839E3,3.5064394E5,3.0796784E5,9.5442625E4,8.2945586E4,2.0194793E4],"tree_param":{"num_deleted":"0","num_feature":"49","num_nodes":"127","size_leaf_vector":"1"}},{"base_weights":[-1.3012631E-3,1.7696446E-2,-3.927128E-2,4.1898213E-2,-5.1120628E-2,-1.2206256E-1,-7.998844E-3,3.0735169E-2,1.4350688E-1,-1.3201842E-1,-2.080235E-2,-2.0831755E-1,-6.297238E-2,-3.1482205E-2,6.543048E-2,2.5291696E-2,1.9524637E-1,1.2567881E-1,6.185753E-1,-2.9921556E-1,-1.2055958E-1,-2.5296176E-2,4.9237663E-1,-2.754154E-1,1.2444801E-1,1.7237468E-1,-9.932834E-2,3.4673756E-1,-3.526294E-2,1.529538E-1,3.8164813E-2,4.5919858E-2,-2.1293996E-2,1.6888745E-1,7.243482E-1,2.2325131E-1,7.16885E-2,-2.2285071E-1,8.5793704E-1,-2.1746412E-2,-4.596396E-1,-1.4624877E-1,-2.8780034E-2,-2.1051392E-1,-1.3918903E-2,5.4596025E-1,-8.9562184E-1,-6.225871E-2,-3.549084E-1,4.5143172E-1,4.7519535E-2,-3.007259E-2,5.0552547E-1,-4.524931E-2,-2.0496115E-1,6.239289E-1,-7.5139683E-1,-2.1642648E-2,-1.3644789E-1,1.161664E-1,2.6302853E-1,-4.031551E-2,9.374004E-2,-1.5488548E-2,2.440851E-2,4.3695442E-2,-1.5052304E-2,6.085847E-2,-6.912058E-2,1.7391223E-1,2.4190708E-1,4.1050997E-2,1.5596257E-1,-9.306756E-3,6.721445E-2,-9.565514E-2,4.439683E-2,2.2668807E-1,2.9205805E-1,-5.7972413E-2,5.4238494E-2,-1.4800566E-1,1.1423643E-1,-3.839232E-2,-8.93528E-2,4.533033E-3,-7.698774E-2,3.8863175E-2,-1.167992E-1,-1.6104478E-2,1.6527297E-2,1.8165335E-1,-1.1492431E-1,-8.066639E-2,-2.7614993E-1,1.1011401E-1,-2.7068064E-2,2.4009423E-2,-1.1725691E-1,-3.4853974E-3,1.609066E-1,-2.503231E-2,5.9624888E-2,4.609008E-2,-1.2903959E-1,-1.8838216E-1,1.6689119E-1,-2.1254389E-2,2.6926258E-1,1.1160622E-3,-8.61213E-2,5.2302238E-2,3.4317082E-1,-2.939003E-1,-9.177901E-2,-4.4763912E-3,-1.0143876E-1,-6.808267E-2,2.8494578E-2,-4.1623764E-2,3.888189E-2,1.1546721E-1,4.039629E-2,-1.5623543E-3,-8.273864E-2,4.730215E-3,4.777856E-2],"categories":[],"categories_nodes":[],"categories_segments":[],"categories_sizes":[],"default_left":[0,0,0,1,0,0,0,0,0,0,1,0,0,0,0,0,0,0,0,0,0,0,0,0,0,0,0,1,1,0,0,0,0,0,0,0,0,0,0,0,1,1,0,0,0,0,0,0,0,0,0,0,0,0,0,0,0,0,0,0,0,0,0,0,0,0,0,0,0,0,0,0,0,0,0,0,0,0,0,0,0,0,0,0,0,0,0,0,0,0,0,0,0,0,0,0,0,0,0,0,0,0,0,0,0,0,0,0,0,0,0,0,0,0,0,0,0,0,0,0,0,0,0,0,0,0,0],"id":7,"left_children":[1,3,5,7,9,11,13,15,17,19,21,23,25,27,29,31,33,35,37,39,41,43,45,47,49,51,53,55,57,59,61,63,65,67,69,71,73,75,77,79,81,83,85,87,89,91,93,95,97,99,101,103,105,107,109,111,113,115,117,119,121,123,125,-1,-1,-1,-1,-1,-1,-1,-1,-1,-1,-1,-1,-1,-1,-1,-1,-1,-1,-1,-1,-1,-1,-1,-1,-1,-1,-1,-1,-1,-1,-1,-1,-1,-1,-1,-1,-1,-1,-1,-1,-1,-1,-1,-1,-1,-1,-1,-1,-1,-1,-1,-1,-1,-1,-1,-1,-1,-1,-1,-1,-1,-1,-1,-1],"loss_changes":[1.6464667E3,2.533766E3,1.9707404E3,1.276616E3,9.7082153E2,1.0636316E3,9.526908E2,9.081311E2,9.435271E2,2.0669458E2,6.6399304E2,1.8943694E3,1.0596864E3,5.986045E2,3.1947278E2,9.4331323E2,4.528661E2,5.6567395E2,8.117534E2,3.0802502E2,2.3809094E2,6.0145624E2,1.8638086E2,1.1963501E3,3.5810876E2,1.1177258E3,6.128075E2,1.2616221E3,5.7120514E2,1.287351E2,4.4522226E2,2.3521948E3,1.4525273E3,4.1976733E2,1.7811829E1,9.804269E2,1.0818552E3,3.1845814E1,3.6365967E1,8.813216E1,1.2442474E2,2.1853711E2,2.2086273E2,1.00445825E3,7.378806E2,1.3340765E2,1.2069244E0,2.3032419E2,8.040952E2,1.0663275E2,2.2830699E2,7.5771216E2,3.6087927E2,1.7124625E3,6.2240186E2,7.732831E2,8.465909E1,7.770631E2,1.0298284E3,8.16781E1,1.245448E2,3.4985565E2,3.0530505E2,0E0,0E0,0E0,0E0,0E0,0E0,0E0,0E0,0E0,0E0,0E0,0E0,0E0,0E0,0E0,0E0,0E0,0E0,0E0,0E0,0E0,0E0,0E0,0E0,0E0,0E0,0E0,0E0,0E0,0E0,0E0,0E0,0E0,0E0,0E0,0E0,0E0,0E0,0E0,0E0,0E0,0E0,0E0,0E0,0E0,0E0,0E0,0E0,0E0,0E0,0E0,0E0,0E0,0E0,0E0,0E0,0E0,0E0,0E0,0E0,0E0,0E0,0E0,0E0],"parents":[2147483647,0,0,1,1,2,2,3,3,4,4,5,5,6,6,7,7,8,8,9,9,10,10,11,11,12,12,13,13,14,14,15,15,16,16,17,17,18,18,19,19,20,20,21,21,22,22,23,23,24,24,25,25,26,26,27,27,28,28,29,29,30,30,31,31,32,32,33,33,34,34,35,35,36,36,37,37,38,38,39,39,40,40,41,41,42,42,43,43,44,44,45,45,46,46,47,47,48,48,49,49,50,50,51,51,52,52,53,53,54,54,55,55,56,56,57,57,58,58,59,59,60,60,61,61,62,62],"right_children":[2,4,6,8,10,12,14,16,18,20,22,24,26,28,30,32,34,36,38,40,42,44,46,48,50,52,54,56,58,60,62,64,66,68,70,72,74,76,78,80,82,84,86,88,90,92,94,96,98,100,102,104,106,108,110,112,114,116,118,120,122,124,126,-1,-1,-1,-1,-1,-1,-1,-1,-1,-1,-1,-1,-1,-1,-1,-1,-1,-1,-1,-1,-1,-1,-1,-1,-1,-1,-1,-1,-1,-1,-1,-1,-1,-1,-1,-1,-1,-1,-1,-1,-1,-1,-1,-1,-1,-1,-1,-1,-1,-1,-1,-1,-1,-1,-1,-1,-1,-1,-1,-1,-1,-1,-1,-1],"split_conditions":[3.134751E6,1.2367E4,6.347E3,1E0,5.258856E-1,1E0,7.8474116E-1,6.9753087E-1,1E0,1.3411E4,1E0,3.0218244E-2,1E0,6.572E3,3.808719E6,1.5432099E-1,1.2001E4,8.53E2,1.6787912E-3,1.4814815E-1,1.06323445E-2,1.3411E4,6.6049385E-1,1.1191942E-3,3.6373813E-2,2.966E3,2.924E3,1E0,1E0,3.646219E6,4.590711E6,8.46E2,2.7E2,7.592E3,5.4223436E-1,7.77E2,1E0,1.0087E4,6.185286E-1,1E0,1E0,1E0,2.9027E4,1.4814815E-1,7.2747623E-3,1E0,5.3950953E-1,2.8E1,4.7E1,1E0,1.2311136E-1,9.18E2,1E0,2.89E3,3.9171795E-3,6.5E3,1E0,1.5109122E-2,1.2870733E-2,8.024691E-2,8.9373296E-1,4.520847E6,2.1797E4,-1.5488548E-2,2.440851E-2,4.3695442E-2,-1.5052304E-2,6.085847E-2,-6.912058E-2,1.7391223E-1,2.4190708E-1,4.1050997E-2,1.5596257E-1,-9.306756E-3,6.721445E-2,-9.565514E-2,4.439683E-2,2.2668807E-1,2.9205805E-1,-5.7972413E-2,5.4238494E-2,-1.4800566E-1,1.1423643E-1,-3.839232E-2,-8.93528E-2,4.533033E-3,-7.698774E-2,3.8863175E-2,-1.167992E-1,-1.6104478E-2,1.6527297E-2,1.8165335E-1,-1.1492431E-1,-8.066639E-2,-2.7614993E-1,1.1011401E-1,-2.7068064E-2,2.4009423E-2,-1.1725691E-1,-3.4853974E-3,1.609066E-1,-2.503231E-2,5.9624888E-2,4.609008E-2,-1.2903959E-1,-1.8838216E-1,1.6689119E-1,-2.1254389E-2,2.6926258E-1,1.1160622E-3,-8.61213E-2,5.2302238E-2,3.4317082E-1,-2.939003E-1,-9.177901E-2,-4.4763912E-3,-1.0143876E-1,-6.808267E-2,2.8494578E-2,-4.1623764E-2,3.888189E-2,1.1546721E-1,4.039629E-2,-1.5623543E-3,-8.273864E-2,4.730215E-3,4.777856E-2],"split_indices":[1,0,0,40,2,40,2,4,28,0,15,5,12,0,1,4,0,0,5,4,5,0,4,5,5,0,0,34,14,1,1,0,0,0,2,0,31,0,2,13,22,14,0,4,5,22,2,0,0,6,5,0,9,0,5,0,14,5,5,4,2,1,0,0,0,0,0,0,0,0,0,0,0,0,0,0,0,0,0,0,0,0,0,0,0,0,0,0,0,0,0,0,0,0,0,0,0,0,0,0,0,0,0,0,0,0,0,0,0,0,0,0,0,0,0,0,0,0,0,0,0,0,0,0,0,0,0],"split_type":[0,0,0,0,0,0,0,0,0,0,0,0,0,0,0,0,0,0,0,0,0,0,0,0,0,0,0,0,0,0,0,0,0,0,0,0,0,0,0,0,0,0,0,0,0,0,0,0,0,0,0,0,0,0,0,0,0,0,0,0,0,0,0,0,0,0,0,0,0,0,0,0,0,0,0,0,0,0,0,0,0,0,0,0,0,0,0,0,0,0,0,0,0,0,0,0,0,0,0,0,0,0,0,0,0,0,0,0,0,0,0,0,0,0,0,0,0,0,0,0,0,0,0,0,0,0,0],"sum_hessian":[2.282499E6,1.521327E6,7.611719E5,1.1255064E6,3.9582062E5,2.0868694E5,5.5248494E5,1.01409594E6,1.11410445E5,1.0790256E5,2.8791806E5,8.484079E4,1.2384615E5,4.186102E5,1.3387475E5,9.816166E5,3.2479328E4,1.07381945E5,4.0284983E3,6.9191587E3,1.009834E5,2.8541966E5,2.4984226E3,7.0604484E4,1.4236305E4,1.6571066E4,1.0727508E5,4.1421694E3,4.1446803E5,3.1797986E4,1.02076766E5,6.803551E5,3.012615E5,3.0939307E4,1.5400216E3,3.8250906E4,6.913104E4,8.9220575E2,3.1362925E3,2.5352793E3,4.3838794E3,7.889892E4,2.208448E4,1.6516688E4,2.6890297E5,2.4061404E3,9.2282234E1,1.9178918E4,5.1425566E4,2.7104968E3,1.1525808E4,1.0308041E4,6.2630254E3,7.095228E4,3.63228E4,3.3076765E3,8.344926E2,3.6529734E5,4.9170688E4,2.3834469E4,7.963516E3,4.2317938E4,5.9758824E4,1.8131428E5,4.9904084E5,4.442938E4,2.5683211E5,2.8513672E4,2.425634E3,5.6014655E2,9.7987506E2,2.9622516E4,8.62839E3,4.1294055E4,2.7836986E4,7.088462E2,1.8335954E2,1.667713E3,1.4685795E3,1.3728834E3,1.162396E3,4.215205E3,1.6867418E2,7.041264E4,8.486276E3,1.851823E4,3.5662505E3,5.692145E3,1.0824542E4,1.7060347E5,9.82995E4,2.2615264E3,1.4461404E2,3.9740684E0,8.830817E1,1.1722964E3,1.8006621E4,3.925774E3,4.7499793E4,4.202002E2,2.2902966E3,6.1770884E3,5.348719E3,7.064608E3,3.2434333E3,2.680608E2,5.9949644E3,6.907761E4,1.8746688E3,1.025663E4,2.606617E4,1.7746154E3,1.5330613E3,5.509631E2,2.835295E2,3.5770172E5,7.5956006E3,3.5348598E4,1.382209E4,1.1932357E3,2.2641234E4,4.0843528E3,3.8791636E3,3.6828246E4,5.4896934E3,2.728738E4,3.2471443E4],"tree_param":{"num_deleted":"0","num_feature":"49","num_nodes":"127","size_leaf_vector":"1"}},{"base_weights":[-1.1374524E-3,-1.9575311E-1,1.7809256E-3,-1.4713037E-1,-4.057029E-1,3.8659908E-3,-2.3494318E-1,-2.0141882E-1,2.2120368E-1,-1.4880809E-1,-5.1674706E-1,5.494184E-3,-2.8238735E-1,5.0175996E-3,-3.7427098E-1,-2.4943103E-1,6.9994055E-2,-2.70958E-2,5.053137E-1,-2.5001445E-1,1.6837832E-1,-4.2869112E-1,-6.825916E-1,3.3996985E-3,2.0342113E-1,-2.5757208E-1,-6.255387E-1,-4.6971995E-1,1.2249396E-1,-3.2881588E-1,-8.8941216E-1,-8.310086E-2,-2.821592E-1,2.0672141E-1,-3.2805666E-1,6.579388E-1,-2.6708794E-1,3.3698186E-1,8.5873306E-1,1.8024644E-1,-3.0947757E-1,2.3843233E-1,-6.96387E-1,-6.756586E-1,-3.4092322E-1,-7.392536E-1,1.3172184E-1,4.9075033E-3,-3.0097997E-1,2.4005178E-1,-3.7306827E-1,-2.8128612E-1,5.8931414E-2,-6.562913E-1,1.7797893E-1,-6.261122E-1,-3.2419997E-1,2.5224635E-1,-9.344144E-2,-4.7827375E-1,-1.3915592E-1,-9.841849E-1,-6.8518186E-1,2.1967635E-2,-1.0038701E-1,-5.2233927E-2,-9.590559E-2,8.07246E-2,-1.1966525E-1,-2.0888968E-1,-8.437827E-2,2.1831746E-1,7.7599995E-2,-3.118066E-2,-1.4232884E-1,1.2344347E-1,-5.394542E-2,2.775086E-1,9.0029284E-2,-5.761882E-2,7.5433895E-2,-5.477255E-2,-1.5229475E-1,-1.4133774E-1,7.755089E-2,-2.4982241E-1,1.3116863E-1,-1.1601106E-1,-2.6605406E-1,-1.5686482E-1,-6.2682584E-2,-2.3604317E-1,-9.818086E-2,-9.990664E-2,7.268211E-2,2.3073659E-3,-4.2793725E-2,-1.2554185E-1,2.3678431E-2,7.742771E-2,-1.7819473E-1,-6.066482E-2,-1.854158E-1,-4.0174317E-2,-1.0520275E-1,-1.8636661E-3,6.27037E-2,-1.328194E-1,-2.1517679E-1,-4.4255942E-2,3.0501926E-1,-2.3379634E-1,-1.4261276E-1,-8.605786E-2,-2.5916663E-1,1.04879595E-1,3.0032858E-2,1.2656549E-1,-3.8255773E-2,-1.7475459E-1,-5.1063754E-2,6.424315E-2,-4.9987875E-2,-3.060013E-1,-2.5467744E-1,-2.1597753E-1,-3.8170196E-2],"categories":[],"categories_nodes":[],"categories_segments":[],"categories_sizes":[],"default_left":[0,0,1,0,0,0,0,1,0,0,0,0,1,0,0,0,0,0,0,0,1,0,0,0,1,1,0,0,0,0,0,0,0,0,0,0,0,0,0,0,0,0,0,0,0,1,0,1,1,1,0,0,0,0,0,0,0,0,0,0,0,0,0,0,0,0,0,0,0,0,0,0,0,0,0,0,0,0,0,0,0,0,0,0,0,0,0,0,0,0,0,0,0,0,0,0,0,0,0,0,0,0,0,0,0,0,0,0,0,0,0,0,0,0,0,0,0,0,0,0,0,0,0,0,0,0,0],"id":8,"left_children":[1,3,5,7,9,11,13,15,17,19,21,23,25,27,29,31,33,35,37,39,41,43,45,47,49,51,53,55,57,59,61,63,65,67,69,71,73,75,77,79,81,83,85,87,89,91,93,95,97,99,101,103,105,107,109,111,113,115,117,119,121,123,125,-1,-1,-1,-1,-1,-1,-1,-1,-1,-1,-1,-1,-1,-1,-1,-1,-1,-1,-1,-1,-1,-1,-1,-1,-1,-1,-1,-1,-1,-1,-1,-1,-1,-1,-1,-1,-1,-1,-1,-1,-1,-1,-1,-1,-1,-1,-1,-1,-1,-1,-1,-1,-1,-1,-1,-1,-1,-1,-1,-1,-1,-1,-1,-1],"loss_changes":[1.294182E3,3.4360144E2,1.1080885E3,5.466614E2,1.8049268E2,1.037196E3,6.553303E2,3.104839E2,2.4776149E2,6.1411938E1,6.424219E1,9.173236E2,1.0701587E2,4.0167493E2,2.9008374E2,1.1017908E2,1.9500899E2,3.08436E2,9.715292E1,3.714633E1,2.821704E1,6.239502E1,7.0734436E1,1.0049179E3,4.8939148E2,8.812573E1,2.10737E1,3.231186E1,1.6178775E2,3.229933E2,1.8776306E1,1.3095294E2,6.8527954E1,1.00817764E2,1.5591721E1,1.3374481E1,4.6947502E1,4.2851845E1,1.9269226E1,4.731238E0,3.194793E1,6.2324963E0,5.767132E0,4.5823395E1,5.1131073E1,2.7788757E1,5.2412844E0,8.9494745E2,4.81807E2,3.279718E2,5.7834152E1,1.1163281E2,8.009251E0,1.0320129E1,8.899832E0,1.5507996E1,1.4708214E1,5.3384018E1,3.812306E1,2.0457507E2,4.879814E1,2.4485474E0,6.1467285E0,0E0,0E0,0E0,0E0,0E0,0E0,0E0,0E0,0E0,0E0,0E0,0E0,0E0,0E0,0E0,0E0,0E0,0E0,0E0,0E0,0E0,0E0,0E0,0E0,0E0,0E0,0E0,0E0,0E0,0E0,0E0,0E0,0E0,0E0,0E0,0E0,0E0,0E0,0E0,0E0,0E0,0E0,0E0,0E0,0E0,0E0,0E0,0E0,0E0,0E0,0E0,0E0,0E0,0E0,0E0,0E0,0E0,0E0,0E0,0E0,0E0,0E0,0E0,0E0],"parents":[2147483647,0,0,1,1,2,2,3,3,4,4,5,5,6,6,7,7,8,8,9,9,10,10,11,11,12,12,13,13,14,14,15,15,16,16,17,17,18,18,19,19,20,20,21,21,22,22,23,23,24,24,25,25,26,26,27,27,28,28,29,29,30,30,31,31,32,32,33,33,34,34,35,35,36,36,37,37,38,38,39,39,40,40,41,41,42,42,43,43,44,44,45,45,46,46,47,47,48,48,49,49,50,50,51,51,52,52,53,53,54,54,55,55,56,56,57,57,58,58,59,59,60,60,61,61,62,62],"right_children":[2,4,6,8,10,12,14,16,18,20,22,24,26,28,30,32,34,36,38,40,42,44,46,48,50,52,54,56,58,60,62,64,66,68,70,72,74,76,78,80,82,84,86,88,90,92,94,96,98,100,102,104,106,108,110,112,114,116,118,120,122,124,126,-1,-1,-1,-1,-1,-1,-1,-1,-1,-1,-1,-1,-1,-1,-1,-1,-1,-1,-1,-1,-1,-1,-1,-1,-1,-1,-1,-1,-1,-1,-1,-1,-1,-1,-1,-1,-1,-1,-1,-1,-1,-1,-1,-1,-1,-1,-1,-1,-1,-1,-1,-1,-1,-1,-1,-1,-1,-1,-1,-1,-1,-1,-1,-1],"split_conditions":[3.0864198E-2,3.0484E4,1E0,2.6349E4,6.155568E-3,3.5849E4,3.588E3,1E0,7.2747623E-3,4.476777E-3,2.4691358E-2,7.7160496E-1,1E0,7.77E2,2.8623E4,6.03E3,4.476777E-3,1E0,2.7775E4,1E0,1E0,1E0,7.834359E-3,7.345679E-1,1E0,1E0,6.563554E6,2.87422E5,5.70379E5,1.7895E4,3.1952E4,3.22934E5,1.8518519E-2,1.9815E4,1.36405E5,5.055402E6,5.595971E-3,5.236745E6,5.356891E6,4.332425E-1,3.1433E4,1.1289E5,5.398961E6,1.8518519E-2,3.2615E4,1E0,4.5504087E-1,1E0,1E0,1E0,5.41497E5,6.155568E-3,3.6296E4,8.024691E-2,1.5432099E-1,5.94E2,1.4814815E-1,1.735E3,1E0,1E0,1.8671E4,4.819584E6,6.223648E6,2.1967635E-2,-1.0038701E-1,-5.2233927E-2,-9.590559E-2,8.07246E-2,-1.1966525E-1,-2.0888968E-1,-8.437827E-2,2.1831746E-1,7.7599995E-2,-3.118066E-2,-1.4232884E-1,1.2344347E-1,-5.394542E-2,2.775086E-1,9.0029284E-2,-5.761882E-2,7.5433895E-2,-5.477255E-2,-1.5229475E-1,-1.4133774E-1,7.755089E-2,-2.4982241E-1,1.3116863E-1,-1.1601106E-1,-2.6605406E-1,-1.5686482E-1,-6.2682584E-2,-2.3604317E-1,-9.818086E-2,-9.990664E-2,7.268211E-2,2.3073659E-3,-4.2793725E-2,-1.2554185E-1,2.3678431E-2,7.742771E-2,-1.7819473E-1,-6.066482E-2,-1.854158E-1,-4.0174317E-2,-1.0520275E-1,-1.8636661E-3,6.27037E-2,-1.328194E-1,-2.1517679E-1,-4.4255942E-2,3.0501926E-1,-2.3379634E-1,-1.4261276E-1,-8.605786E-2,-2.5916663E-1,1.04879595E-1,3.0032858E-2,1.2656549E-1,-3.8255773E-2,-1.7475459E-1,-5.1063754E-2,6.424315E-2,-4.9987875E-2,-3.060013E-1,-2.5467744E-1,-2.1597753E-1,-3.8170196E-2],"split_indices":[4,0,45,0,5,0,0,33,5,5,4,4,12,0,0,0,5,12,0,43,31,23,5,4,38,43,1,1,1,0,0,1,4,0,1,1,5,1,1,2,0,1,1,4,0,31,2,23,7,12,1,5,0,4,4,0,4,0,27,19,0,1,1,0,0,0,0,0,0,0,0,0,0,0,0,0,0,0,0,0,0,0,0,0,0,0,0,0,0,0,0,0,0,0,0,0,0,0,0,0,0,0,0,0,0,0,0,0,0,0,0,0,0,0,0,0,0,0,0,0,0,0,0,0,0,0,0],"split_type":[0,0,0,0,0,0,0,0,0,0,0,0,0,0,0,0,0,0,0,0,0,0,0,0,0,0,0,0,0,0,0,0,0,0,0,0,0,0,0,0,0,0,0,0,0,0,0,0,0,0,0,0,0,0,0,0,0,0,0,0,0,0,0,0,0,0,0,0,0,0,0,0,0,0,0,0,0,0,0,0,0,0,0,0,0,0,0,0,0,0,0,0,0,0,0,0,0,0,0,0,0,0,0,0,0,0,0,0,0,0,0,0,0,0,0,0,0,0,0,0,0,0,0,0,0,0,0],"sum_hessian":[2.27864E6,3.366377E4,2.2449762E6,2.7334916E4,6.3288535E3,2.2253762E6,1.9600123E4,2.3823975E4,3.5109429E3,1.910757E3,4.4180967E3,2.212791E6,1.2585252E4,7.20026E3,1.2399863E4,2.0243104E4,3.5808691E3,1.8740294E3,1.6369136E3,1.4487184E3,4.620385E2,2.888186E3,1.5299103E3,2.1896212E6,2.3169805E4,1.1738148E4,8.471039E2,1.4277073E3,5.7725527E3,1.1395944E4,1.0039189E3,3.3288538E3,1.691425E4,2.665702E3,9.151674E2,4.8575287E2,1.3882765E3,1.1101217E3,5.267918E2,1.7565918E2,1.2730592E3,4.2808405E2,3.395449E1,7.555285E2,2.1326577E3,1.430467E3,9.944321E1,2.178829E6,1.0792276E4,2.1786082E4,1.383723E3,1.0920072E4,8.180757E2,8.160546E2,3.1049221E1,6.8655475E2,7.411525E2,3.6057454E3,2.1668071E3,6.3726094E3,5.023335E3,6.8310583E2,3.2081302E2,2.0533586E3,1.2754951E3,4.3616636E3,1.2552588E4,2.4173386E3,2.483631E2,1.0162071E2,8.135467E2,4.127827E2,7.297014E1,7.777689E2,6.105076E2,9.704376E2,1.3968413E2,4.70321E2,5.6470787E1,2.792738E1,1.477318E2,7.772536E2,4.9580563E2,1.1157548E1,4.1692648E2,3.0545774E1,3.4087155E0,3.202215E2,4.3530698E2,8.953282E2,1.2373295E3,1.2816154E3,1.4885178E2,1.872282E1,8.072039E1,2.1384855E6,4.0343383E4,8.242916E3,2.5493596E3,2.132549E4,4.605904E2,8.1627673E2,5.674463E2,3.4966738E3,7.423399E3,5.7113104E2,2.4694467E2,1.8305882E2,6.3299585E2,2.296226E1,8.086963E0,3.3841687E2,3.481379E2,6.946238E2,4.652873E1,2.1979685E3,1.4077769E3,1.3369426E2,2.0331129E3,4.760772E3,1.6118375E3,3.6191376E2,4.661421E3,5.349105E2,1.4819534E2,3.0173383E2,1.9079205E1],"tree_param":{"num_deleted":"0","num_feature":"49","num_nodes":"127","size_leaf_vector":"1"}},{"base_weights":[-8.966811E-4,-1.204736E-2,3.8878784E-2,-5.345476E-4,-9.5856234E-2,1.3619189E-1,2.779301E-3,4.174804E-3,-2.1208936E-1,1.4455423E-1,-1.3243178E-1,-2.0582075E-1,1.687538E-1,2.0775342E-2,-1.8654105E-1,-3.807705E-2,2.0934114E-2,-2.3797908E-1,6.4752233E-1,2.0809942E-1,-3.0744788E-1,-1.6453782E-1,8.057821E-2,-5.1332957E-1,7.4320234E-2,5.3890646E-1,9.9102125E-2,9.682394E-3,4.6025094E-1,-5.7789177E-1,-9.496977E-2,3.9776426E-2,-7.528438E-2,8.655605E-2,5.0132517E-3,-8.57228E-2,-3.1882522E-1,7.2983575E-1,3.269811E-1,1.1607281E-1,4.407028E-1,-2.1079306E-1,-5.00619E-1,5.020916E-2,-2.0057553E-1,-9.3340605E-2,2.1762758E-1,-7.0441765E-1,-2.3919202E-1,1.3621944E-1,-8.635866E-1,6.3358235E-1,-7.3527384E-1,-5.804972E-2,2.240786E-1,5.7904903E-2,-4.525012E-2,4.9487707E-1,-9.238077E-1,-6.4368653E-1,-2.6921386E-1,5.144326E-1,-1.4357424E-1,-1.993867E-2,3.1028157E-2,-2.7930465E-2,7.9828836E-2,6.7776614E-3,5.6804307E-2,2.264815E-3,-1.5339598E-1,-5.5899832E-2,4.5271564E-2,-1.1079181E-1,3.4302328E-2,8.106636E-2,2.407146E-1,5.11424E-1,9.146639E-2,7.170815E-2,-4.899132E-2,5.8869686E-2,1.8526304E-1,-4.4694982E-2,-1.13486394E-1,-1.9583616E-1,-7.4537285E-2,-3.811367E-2,1.03673436E-1,-1.3749118E-1,-5.424794E-2,5.4944415E-2,-7.256291E-2,1.2518573E-1,3.7451172E-3,2.4590282E-2,-2.281676E-1,-2.9819502E-2,-1.298029E-1,7.7854045E-2,1.8621583E-2,-2.074181E-1,-3.23433E-1,7.3292255E-2,2.5793535E-1,-1.2922888E-1,-3.1111726E-1,6.1841175E-2,-5.8417734E-2,7.248347E-2,-2.1091972E-1,2.3201372E-2,-3.55009E-2,-4.0172394E-2,5.7266634E-3,8.503803E-2,1.6550927E-1,-1.8037154E-1,-3.08156E-1,-1.5707514E-1,-2.1071512E-1,-3.1503785E-2,-2.415912E-1,1.6604121E-1,6.537312E-2,-2.517742E-1,-3.1087011E-2],"categories":[],"categories_nodes":[],"categories_segments":[],"categories_sizes":[],"default_left":[0,1,0,1,0,0,0,0,0,0,0,1,0,0,0,0,0,0,0,0,0,0,0,1,0,0,0,0,0,0,0,0,1,0,1,0,0,0,0,0,0,0,0,0,0,0,0,0,0,0,0,0,0,0,1,1,0,0,0,0,0,0,0,0,0,0,0,0,0,0,0,0,0,0,0,0,0,0,0,0,0,0,0,0,0,0,0,0,0,0,0,0,0,0,0,0,0,0,0,0,0,0,0,0,0,0,0,0,0,0,0,0,0,0,0,0,0,0,0,0,0,0,0,0,0,0,0],"id":9,"left_children":[1,3,5,7,9,11,13,15,17,19,21,23,25,27,29,31,33,35,37,39,41,43,45,47,49,51,53,55,57,59,61,63,65,67,69,71,73,75,77,79,81,83,85,87,89,91,93,95,97,99,101,103,105,107,109,111,113,115,117,119,121,123,125,-1,-1,-1,-1,-1,-1,-1,-1,-1,-1,-1,-1,-1,-1,-1,-1,-1,-1,-1,-1,-1,-1,-1,-1,-1,-1,-1,-1,-1,-1,-1,-1,-1,-1,-1,-1,-1,-1,-1,-1,-1,-1,-1,-1,-1,-1,-1,-1,-1,-1,-1,-1,-1,-1,-1,-1,-1,-1,-1,-1,-1,-1,-1,-1],"loss_changes":[1.0098574E3,1.7158896E3,1.7513629E3,1.5577606E3,1.8886699E3,1.5023469E3,1.2389545E3,1.083072E3,7.5789905E2,8.147137E2,1.2749575E3,1.01029224E3,3.1755508E3,1.6189187E3,1.1311721E3,1.258302E3,1.1441484E3,4.0683765E2,2.6034027E1,5.322527E2,6.517413E1,1.2537798E3,5.820633E2,2.9269568E2,3.564391E2,2.353624E3,2.0360618E3,8.580259E2,3.9227844E2,1.2138623E2,7.5780316E2,9.4988245E2,1.7877719E3,1.4058496E3,1.1540751E3,2.729808E2,4.72125E2,2.6173645E1,5.728426E0,6.1214343E2,3.0462732E2,2.4087013E1,4.4550415E1,1.2189414E3,7.060215E2,4.420512E2,5.5938806E2,1.4547998E2,6.2108795E1,5.2627388E1,1.3296051E1,1.598685E3,1.2357849E2,1.6582264E3,9.3885034E2,5.907642E2,8.637212E2,9.566846E1,6.048355E0,3.4408936E1,9.26384E1,2.1755768E1,6.584092E2,0E0,0E0,0E0,0E0,0E0,0E0,0E0,0E0,0E0,0E0,0E0,0E0,0E0,0E0,0E0,0E0,0E0,0E0,0E0,0E0,0E0,0E0,0E0,0E0,0E0,0E0,0E0,0E0,0E0,0E0,0E0,0E0,0E0,0E0,0E0,0E0,0E0,0E0,0E0,0E0,0E0,0E0,0E0,0E0,0E0,0E0,0E0,0E0,0E0,0E0,0E0,0E0,0E0,0E0,0E0,0E0,0E0,0E0,0E0,0E0,0E0,0E0,0E0,0E0],"parents":[2147483647,0,0,1,1,2,2,3,3,4,4,5,5,6,6,7,7,8,8,9,9,10,10,11,11,12,12,13,13,14,14,15,15,16,16,17,17,18,18,19,19,20,20,21,21,22,22,23,23,24,24,25,25,26,26,27,27,28,28,29,29,30,30,31,31,32,32,33,33,34,34,35,35,36,36,37,37,38,38,39,39,40,40,41,41,42,42,43,43,44,44,45,45,46,46,47,47,48,48,49,49,50,50,51,51,52,52,53,53,54,54,55,55,56,56,57,57,58,58,59,59,60,60,61,61,62,62],"right_children":[2,4,6,8,10,12,14,16,18,20,22,24,26,28,30,32,34,36,38,40,42,44,46,48,50,52,54,56,58,60,62,64,66,68,70,72,74,76,78,80,82,84,86,88,90,92,94,96,98,100,102,104,106,108,110,112,114,116,118,120,122,124,126,-1,-1,-1,-1,-1,-1,-1,-1,-1,-1,-1,-1,-1,-1,-1,-1,-1,-1,-1,-1,-1,-1,-1,-1,-1,-1,-1,-1,-1,-1,-1,-1,-1,-1,-1,-1,-1,-1,-1,-1,-1,-1,-1,-1,-1,-1,-1,-1,-1,-1,-1,-1,-1,-1,-1,-1,-1,-1,-1,-1,-1,-1,-1,-1],"split_conditions":[1.3989927E-2,1E0,1.45495245E-2,1E0,3E2,1.575E3,1.1113E4,1.4814815E-1,1E0,8.393956E-3,3.148148E-1,1E0,2.924E3,1.0568E4,1.4345E4,6.715165E-3,1E0,6.715165E-3,1.362497E6,1E0,4.55516E5,1.4197531E-1,1E0,1E0,1E0,1.5432099E-1,1.1577E4,4.78149E5,1.4814815E-1,2.9099049E-2,1.4741E4,1.2962963E-1,1E0,1E0,1E0,2.2383884E-3,1E0,4.0871936E-1,3.4332424E-1,5.0363736E-3,1.4814815E-1,1E0,1E0,1E0,1.462E3,5.308642E-1,1E0,1.39E2,5.13676E5,4.7E1,3.11826E5,2.00001E0,2.167E3,5.233E3,1E0,1E0,1.5109122E-2,3.57607E5,5.1226157E-1,1.2189E4,3.737301E6,5.236745E6,1.5687E4,-1.993867E-2,3.1028157E-2,-2.7930465E-2,7.9828836E-2,6.7776614E-3,5.6804307E-2,2.264815E-3,-1.5339598E-1,-5.5899832E-2,4.5271564E-2,-1.1079181E-1,3.4302328E-2,8.106636E-2,2.407146E-1,5.11424E-1,9.146639E-2,7.170815E-2,-4.899132E-2,5.8869686E-2,1.8526304E-1,-4.4694982E-2,-1.13486394E-1,-1.9583616E-1,-7.4537285E-2,-3.811367E-2,1.03673436E-1,-1.3749118E-1,-5.424794E-2,5.4944415E-2,-7.256291E-2,1.2518573E-1,3.7451172E-3,2.4590282E-2,-2.281676E-1,-2.9819502E-2,-1.298029E-1,7.7854045E-2,1.8621583E-2,-2.074181E-1,-3.23433E-1,7.3292255E-2,2.5793535E-1,-1.2922888E-1,-3.1111726E-1,6.1841175E-2,-5.8417734E-2,7.248347E-2,-2.1091972E-1,2.3201372E-2,-3.55009E-2,-4.0172394E-2,5.7266634E-3,8.503803E-2,1.6550927E-1,-1.8037154E-1,-3.08156E-1,-1.5707514E-1,-2.1071512E-1,-3.1503785E-2,-2.415912E-1,1.6604121E-1,6.537312E-2,-2.517742E-1,-3.1087011E-2],"split_indices":[5,14,5,43,0,0,0,4,28,5,4,38,0,0,0,5,9,5,1,44,1,4,7,27,16,4,0,1,4,5,0,4,27,34,22,5,24,2,2,5,4,6,22,31,0,4,9,0,1,0,1,6,0,0,19,44,5,1,2,0,1,1,0,0,0,0,0,0,0,0,0,0,0,0,0,0,0,0,0,0,0,0,0,0,0,0,0,0,0,0,0,0,0,0,0,0,0,0,0,0,0,0,0,0,0,0,0,0,0,0,0,0,0,0,0,0,0,0,0,0,0,0,0,0,0,0,0],"split_type":[0,0,0,0,0,0,0,0,0,0,0,0,0,0,0,0,0,0,0,0,0,0,0,0,0,0,0,0,0,0,0,0,0,0,0,0,0,0,0,0,0,0,0,0,0,0,0,0,0,0,0,0,0,0,0,0,0,0,0,0,0,0,0,0,0,0,0,0,0,0,0,0,0,0,0,0,0,0,0,0,0,0,0,0,0,0,0,0,0,0,0,0,0,0,0,0,0,0,0,0,0,0,0,0,0,0,0,0,0,0,0,0,0,0,0,0,0,0,0,0,0,0,0,0,0,0,0],"sum_hessian":[2.2768952E6,1.7783518E6,4.9854353E5,1.5635659E6,2.147858E5,1.348978E5,3.6364572E5,1.5295188E6,3.404713E4,2.8361715E4,1.864241E5,1.1726255E4,1.2317155E5,3.3208038E5,3.1565352E4,4.3438662E5,1.0951321E6,3.3052383E4,9.9474634E2,2.4866389E4,3.4953276E3,1.6200589E5,2.4418203E4,5.589675E3,6.13658E3,1.950557E4,1.0366598E5,3.239056E5,8.174785E3,5.9843896E3,2.558096E4,1.4046802E5,2.9391862E5,2.1381875E5,8.813134E5,1.1464163E4,2.158822E4,7.9047845E2,2.0426787E2,1.78183E4,7.0480874E3,2.3310554E3,1.1642722E3,2.3280156E4,1.3872573E5,1.0761689E4,1.3656514E4,3.2928315E3,2.2968435E3,5.757459E3,3.791213E2,1.8156951E4,1.3486199E3,4.592192E4,5.774405E4,1.7248745E5,1.5141816E5,7.975888E3,1.9889691E2,4.932039E3,1.0523508E3,1.8888602E3,2.3692102E4,5.2627727E4,8.784029E4,2.7934016E5,1.4578464E4,1.3180319E5,8.2015555E4,8.770067E5,4.306706E3,8.044149E3,3.4200144E3,1.9335074E4,2.253145E3,1.0840517E2,6.820733E2,2.0218225E0,2.0224605E2,1.2373048E4,5.445253E3,2.9592415E3,4.0888462E3,1.7040923E3,6.269631E2,7.251112E2,4.39161E2,1.4549428E4,8.730729E3,9.872023E3,1.288537E5,3.7608684E3,7.000821E3,6.9202656E3,6.7362476E3,2.1938414E2,3.0734473E3,1.3343096E3,9.625339E2,2.1612263E3,3.5962327E3,2.1265277E2,1.6646854E2,6.6738657E3,1.1483085E4,6.72485E2,6.761349E2,1.5657112E4,3.0264809E4,5.6673062E4,1.0709899E3,1.553577E5,1.7129748E4,6.3674664E4,8.774349E4,1.6907935E3,6.2850947E3,4.9927143E1,1.4896977E2,1.6223668E3,3.309672E3,8.0651575E2,2.4583508E2,1.6683501E3,2.2051015E2,1.2856035E3,2.2406498E4],"tree_param":{"num_deleted":"0","num_feature":"49","num_nodes":"127","size_leaf_vector":"1"}},{"base_weights":[-8.427188E-4,-3.1423453E-2,1.205701E-2,-1.9504592E-2,-1.2280766E-1,-1.0118053E-1,1.5542852E-2,8.5250987E-4,-6.790509E-2,-2.2291112E-1,2.118264E-2,-8.613502E-2,-3.3483073E-1,7.044119E-3,6.0819544E-2,-7.753059E-3,7.6160304E-2,-5.4503594E-2,-2.1188998E-1,-2.5969967E-1,-1.1429854E-1,-9.104954E-3,3.073808E-1,2.479379E-2,-1.23136364E-1,-6.6226083E-1,-1.63991E-1,-1.3651483E-3,5.894396E-2,6.73321E-2,-3.7106544E-1,-2.0354703E-2,7.596492E-2,6.3802436E-2,5.028042E-1,-1.0792899E-1,-1.4439924E-2,-2.4125566E-1,4.869618E-2,5.685808E-3,-2.7817675E-1,-1.3535546E-1,3.2459715E-1,6.5116815E-2,-1.3680233E-1,2.183782E-1,5.0608695E-1,-2.157385E-2,5.9572047E-1,-8.598302E-2,-2.629274E-1,-7.7137077E-1,-5.374592E-1,8.027673E-2,-3.090045E-1,1.27810845E-2,-7.742265E-2,4.7573723E-2,3.902481E-1,7.391428E-2,-2.3545748E-1,-5.8641356E-1,-1.0946217E-1,5.8177575E-3,-1.2644322E-2,1.3501832E-1,1.0273905E-2,1.4505762E-2,1.0865992E-1,1.2906003E-1,1.7859729E-1,-4.5885634E-2,-2.173943E-2,-9.570394E-3,3.0540304E-2,-9.743233E-2,-5.4553367E-2,-8.790733E-2,1.0814196E-1,-1.6652547E-1,3.0634478E-2,-8.666177E-2,-2.8724913E-3,-7.1698464E-2,-2.6934044E-2,1.904268E-1,1.08025335E-2,-1.1701549E-2,3.682134E-2,-3.651296E-2,-1.2869546E-1,7.4863516E-2,-1.2487676E-1,2.2709453E-1,9.371421E-2,-1.8318688E-2,7.826779E-2,1.7460828E-1,2.5887632E-1,-1.6874328E-2,-1.0552544E-1,-3.730919E-3,-9.757824E-2,-2.9911867E-1,-2.152931E-1,-2.558227E-1,-1.4133912E-1,-1.6764332E-2,1.1189043E-1,-1.162107E-1,-2.7950235E-2,-1.5465015E-2,6.945208E-3,-3.892678E-2,4.6288196E-2,1.1947105E-2,1.091628E-1,2.6494455E-1,5.1798563E-2,8.071537E-3,3.9462265E-2,-1.1170463E-1,1.7378853E-1,-1.2239826E-1,-2.339079E-1,1.6587008E-2,-2.1940875E-1],"categories":[],"categories_nodes":[],"categories_segments":[],"categories_sizes":[],"default_left":[0,0,0,0,0,0,1,1,0,0,0,0,0,0,0,0,0,0,0,0,0,0,0,1,0,0,0,0,1,0,0,0,0,0,0,0,0,0,1,0,0,0,0,0,1,0,0,0,0,1,0,0,0,0,0,0,0,0,0,0,0,0,0,0,0,0,0,0,0,0,0,0,0,0,0,0,0,0,0,0,0,0,0,0,0,0,0,0,0,0,0,0,0,0,0,0,0,0,0,0,0,0,0,0,0,0,0,0,0,0,0,0,0,0,0,0,0,0,0,0,0,0,0,0,0,0,0],"id":10,"left_children":[1,3,5,7,9,11,13,15,17,19,21,23,25,27,29,31,33,35,37,39,41,43,45,47,49,51,53,55,57,59,61,63,65,67,69,71,73,75,77,79,81,83,85,87,89,91,93,95,97,99,101,103,105,107,109,111,113,115,117,119,121,123,125,-1,-1,-1,-1,-1,-1,-1,-1,-1,-1,-1,-1,-1,-1,-1,-1,-1,-1,-1,-1,-1,-1,-1,-1,-1,-1,-1,-1,-1,-1,-1,-1,-1,-1,-1,-1,-1,-1,-1,-1,-1,-1,-1,-1,-1,-1,-1,-1,-1,-1,-1,-1,-1,-1,-1,-1,-1,-1,-1,-1,-1,-1,-1,-1],"loss_changes":[8.9638214E2,7.3426953E2,6.3083765E2,5.875918E2,1.1211295E3,1.6775201E2,5.9659534E2,2.7205737E2,3.4069098E2,1.8330396E2,2.7651102E2,1.8405573E2,1.6138797E2,5.6972687E2,6.892175E2,3.9746375E2,2.2695367E2,3.4574432E2,1.1505798E2,1.6806055E2,1.07348175E2,2.7342056E2,5.387845E1,2.9695282E2,1.7461893E2,1.3060181E1,6.727425E1,1.2086741E3,6.8564996E2,4.8111633E2,2.0500812E2,2.8364862E2,7.69251E2,1.9287756E2,7.883667E0,1.10517334E2,1.8736833E2,6.6985596E1,1.6241658E2,1.2074378E2,9.205127E1,5.2313416E1,4.7581455E1,1.0946275E2,4.670894E1,4.1841484E1,4.5622787E1,1.1574398E2,2.580597E0,2.099284E2,1.1022955E2,5.658539E0,9.319962E0,2.8237057E1,2.011679E1,6.318708E2,2.1363962E3,4.3137756E2,6.475661E2,6.400112E2,5.7305725E2,6.852637E1,1.6856621E2,0E0,0E0,0E0,0E0,0E0,0E0,0E0,0E0,0E0,0E0,0E0,0E0,0E0,0E0,0E0,0E0,0E0,0E0,0E0,0E0,0E0,0E0,0E0,0E0,0E0,0E0,0E0,0E0,0E0,0E0,0E0,0E0,0E0,0E0,0E0,0E0,0E0,0E0,0E0,0E0,0E0,0E0,0E0,0E0,0E0,0E0,0E0,0E0,0E0,0E0,0E0,0E0,0E0,0E0,0E0,0E0,0E0,0E0,0E0,0E0,0E0,0E0,0E0,0E0],"parents":[2147483647,0,0,1,1,2,2,3,3,4,4,5,5,6,6,7,7,8,8,9,9,10,10,11,11,12,12,13,13,14,14,15,15,16,16,17,17,18,18,19,19,20,20,21,21,22,22,23,23,24,24,25,25,26,26,27,27,28,28,29,29,30,30,31,31,32,32,33,33,34,34,35,35,36,36,37,37,38,38,39,39,40,40,41,41,42,42,43,43,44,44,45,45,46,46,47,47,48,48,49,49,50,50,51,51,52,52,53,53,54,54,55,55,56,56,57,57,58,58,59,59,60,60,61,61,62,62],"right_children":[2,4,6,8,10,12,14,16,18,20,22,24,26,28,30,32,34,36,38,40,42,44,46,48,50,52,54,56,58,60,62,64,66,68,70,72,74,76,78,80,82,84,86,88,90,92,94,96,98,100,102,104,106,108,110,112,114,116,118,120,122,124,126,-1,-1,-1,-1,-1,-1,-1,-1,-1,-1,-1,-1,-1,-1,-1,-1,-1,-1,-1,-1,-1,-1,-1,-1,-1,-1,-1,-1,-1,-1,-1,-1,-1,-1,-1,-1,-1,-1,-1,-1,-1,-1,-1,-1,-1,-1,-1,-1,-1,-1,-1,-1,-1,-1,-1,-1,-1,-1,-1,-1,-1,-1,-1,-1],"split_conditions":[5.013624E-1,5.085721E6,7.4074075E-2,1.2001E4,2.1939E4,6.790123E-2,1E0,1E0,3.3018E4,4.4959128E-1,6.563554E6,1.1191942E-3,1E0,2.5925925E-1,1E0,1.5109122E-2,1E0,2.152849E6,1.3989927E-2,3.4332424E-1,6.767463E6,3.2438E4,4.386921E-1,1E0,3.0484E4,1.849086E6,9.776E3,1.5432099E-1,1E0,3.3654E4,1E0,6.715165E-3,2.1264689E-2,1.1577E4,4.84085E5,4.1144413E-1,4.782576E6,1E0,1E0,5.18979E6,8.282037E-2,4.6321526E-1,4.6321526E-1,1E0,1E0,4.359673E-1,4.6049047E-1,6.1728396E-2,9.7275203E-1,1E0,6.155568E-3,1.56259E5,7.817E3,2.398E3,1.6417E4,8.13E2,1.3655E4,3.9171795E-3,3.2098764E-1,9.253E3,1E0,1E0,2.0057E4,5.8177575E-3,-1.2644322E-2,1.3501832E-1,1.0273905E-2,1.4505762E-2,1.0865992E-1,1.2906003E-1,1.7859729E-1,-4.5885634E-2,-2.173943E-2,-9.570394E-3,3.0540304E-2,-9.743233E-2,-5.4553367E-2,-8.790733E-2,1.0814196E-1,-1.6652547E-1,3.0634478E-2,-8.666177E-2,-2.8724913E-3,-7.1698464E-2,-2.6934044E-2,1.904268E-1,1.08025335E-2,-1.1701549E-2,3.682134E-2,-3.651296E-2,-1.2869546E-1,7.4863516E-2,-1.2487676E-1,2.2709453E-1,9.371421E-2,-1.8318688E-2,7.826779E-2,1.7460828E-1,2.5887632E-1,-1.6874328E-2,-1.0552544E-1,-3.730919E-3,-9.757824E-2,-2.9911867E-1,-2.152931E-1,-2.558227E-1,-1.4133912E-1,-1.6764332E-2,1.1189043E-1,-1.162107E-1,-2.7950235E-2,-1.5465015E-2,6.945208E-3,-3.892678E-2,4.6288196E-2,1.1947105E-2,1.091628E-1,2.6494455E-1,5.1798563E-2,8.071537E-3,3.9462265E-2,-1.1170463E-1,1.7378853E-1,-1.2239826E-1,-2.339079E-1,1.6587008E-2,-2.1940875E-1],"split_indices":[2,1,4,0,0,4,31,40,0,2,1,5,34,4,41,5,30,1,5,2,1,0,2,18,0,1,0,4,42,0,12,5,5,0,1,2,1,33,14,1,5,2,2,33,16,2,2,4,2,12,5,1,0,0,0,0,0,5,4,0,21,24,0,0,0,0,0,0,0,0,0,0,0,0,0,0,0,0,0,0,0,0,0,0,0,0,0,0,0,0,0,0,0,0,0,0,0,0,0,0,0,0,0,0,0,0,0,0,0,0,0,0,0,0,0,0,0,0,0,0,0,0,0,0,0,0,0],"split_type":[0,0,0,0,0,0,0,0,0,0,0,0,0,0,0,0,0,0,0,0,0,0,0,0,0,0,0,0,0,0,0,0,0,0,0,0,0,0,0,0,0,0,0,0,0,0,0,0,0,0,0,0,0,0,0,0,0,0,0,0,0,0,0,0,0,0,0,0,0,0,0,0,0,0,0,0,0,0,0,0,0,0,0,0,0,0,0,0,0,0,0,0,0,0,0,0,0,0,0,0,0,0,0,0,0,0,0,0,0,0,0,0,0,0,0,0,0,0,0,0,0,0,0,0,0,0,0],"sum_hessian":[2.272293E6,6.7414056E5,1.5981524E6,5.963609E5,7.777966E4,4.7726586E4,1.5504258E6,4.197967E5,1.7656422E5,4.58817E4,3.1897955E4,4.4840523E4,2.8860608E3,1.3053955E6,2.4503019E5,3.7674606E5,4.3050613E4,1.6153098E5,1.5033232E4,3.427194E4,1.1609758E4,2.8846205E4,3.0517495E3,1.1215912E4,3.3624613E4,9.8854553E2,1.8975153E3,1.1233771E6,1.8201842E5,2.4139102E5,3.6391782E3,3.2745647E5,4.9289613E4,4.1839855E4,1.2107544E3,6.922153E4,9.230945E4,1.3510768E4,1.5224655E3,2.230862E3,3.2041078E4,1.1078916E4,5.3084235E2,1.824318E4,1.0603025E4,2.1091416E3,9.426078E2,1.0374326E4,8.415857E2,2.6565666E4,7.0589463E3,5.2466644E2,4.638791E2,7.070211E2,1.1904941E3,9.472038E5,1.7617331E5,1.7598E5,6.0384272E3,2.3625592E5,5.1350938E3,1.9953735E3,1.6438047E3,1.1596103E5,2.1149544E5,4.944231E3,4.434538E4,3.9781293E4,2.0585657E3,6.815583E2,5.291961E2,3.0498842E4,3.8722688E4,8.025456E4,1.2054891E4,5.6141123E3,7.896655E3,7.2638135E2,7.960841E2,3.2663034E2,1.9042317E3,3.081398E4,1.2270978E3,3.3825864E3,7.696329E3,2.5528111E2,2.7556122E2,6.4992534E3,1.1743927E4,1.0083582E4,5.194433E2,2.0109889E3,9.815272E1,4.0941373E2,5.3319403E2,9.102581E3,1.2717451E3,8.035837E2,3.8001995E1,2.3893566E4,2.6720984E3,1.4068048E3,5.6521416E3,9.75078E1,4.2715866E2,7.8567055E1,3.85312E2,4.8309705E2,2.2392406E2,8.728072E2,3.17687E2,1.3148588E5,8.1571794E5,1.4371555E5,3.2457764E4,1.7177236E5,4.207642E3,1.848329E3,4.1900986E3,1.3011526E5,1.0614066E5,4.3968896E3,7.382039E2,1.0391907E3,9.561829E2,1.3002555E3,3.435492E2],"tree_param":{"num_deleted":"0","num_feature":"49","num_nodes":"127","size_leaf_vector":"1"}},{"base_weights":[-7.1683613E-4,-1.7325252E-2,1.9050865E-2,1.4642255E-2,-5.5214647E-2,1.6019627E-2,5.255045E-1,3.599474E-3,1.00397535E-1,-7.4065775E-2,9.1779724E-2,2.0394513E-2,-2.6919812E-1,3.3900823E-2,8.30219E-1,9.225259E-3,-1.5889505E-1,5.7109825E-2,5.536656E-1,-1.5860058E-1,-3.1432226E-2,-1.6172668E-1,1.6071117E-1,2.4159588E-2,-1.8600371E-1,-1.7500372E-1,-4.0738776E-1,-1.9149135E-1,4.34768E-1,9.120293E-1,4.570189E-1,4.2807707E-3,2.3830134E-1,-8.869722E-2,-8.255661E-1,1.7420737E-1,-7.3877215E-2,-4.9839026E-1,9.2730474E-1,-1.7651421E-1,5.892818E-1,-1.4519919E-2,-2.3836671E-1,-2.1220899E-1,5.296577E-1,1.269729E-1,9.8347825E-1,3.3990372E-2,-5.341474E-2,-3.6191398E-1,-1.031745E-1,-2.410726E-1,4.4855618E-4,-1.07238196E-1,-4.435573E-1,-3.4583947E-1,-1.3778238E-1,5.5650014E-1,2.2067477E-1,7.7209496E-1,1.0248775E0,3.6657977E-1,7.454907E-1,-1.1133049E-2,8.662464E-3,9.0925165E-2,-1.7671464E-1,-3.353081E-2,1.14232995E-1,-1.8962014E-1,-3.0462372E-1,4.419131E-2,2.8261578E-1,2.2215143E-2,-6.1884698E-2,-1.0183046E-1,-2.7979854E-1,2.138923E-1,2.928622E-1,-5.6791924E-2,1.4187022E-1,1.859146E-1,-1.3814078E-1,-7.6805847E-3,6.1776523E-2,-1.19387105E-1,1.3624622E-1,-1.0124187E-1,-1.3095932E-2,2.7140108E-1,1.0087282E-1,5.9799466E-2,-5.8306176E-2,3.0283588E-1,1.8079224E-1,-5.7413965E-3,1.4731885E-2,2.799527E-2,-4.9528357E-2,-8.054724E-2,-2.3779084E-1,-2.214647E-2,-2.8484884E-1,-1.6804045E-2,-1.00787856E-1,2.4046455E-2,-1.0855305E-1,-1.2682692E-2,-1.1928267E-1,-1.5080862E-1,-9.2358455E-2,-4.5194585E-2,-1.2592877E-1,-7.877455E-2,-3.020213E-2,1.3595313E-1,2.1107686E-1,3.778115E-2,1.4904325E-1,3.5250568E-1,2.2578205E-1,2.9771057E-1,3.5609156E-1,8.766394E-3,1.2431722E-1,2.382539E-1,-2.4931988E-1],"categories":[],"categories_nodes":[],"categories_segments":[],"categories_sizes":[],"default_left":[0,0,0,1,1,1,1,1,0,0,0,1,0,0,0,1,0,0,0,0,0,0,0,0,0,0,0,0,0,0,0,0,0,0,0,0,0,0,0,0,0,1,0,0,0,0,0,0,0,0,0,0,0,0,0,0,0,0,0,0,0,0,0,0,0,0,0,0,0,0,0,0,0,0,0,0,0,0,0,0,0,0,0,0,0,0,0,0,0,0,0,0,0,0,0,0,0,0,0,0,0,0,0,0,0,0,0,0,0,0,0,0,0,0,0,0,0,0,0,0,0,0,0,0,0,0,0],"id":11,"left_children":[1,3,5,7,9,11,13,15,17,19,21,23,25,27,29,31,33,35,37,39,41,43,45,47,49,51,53,55,57,59,61,63,65,67,69,71,73,75,77,79,81,83,85,87,89,91,93,95,97,99,101,103,105,107,109,111,113,115,117,119,121,123,125,-1,-1,-1,-1,-1,-1,-1,-1,-1,-1,-1,-1,-1,-1,-1,-1,-1,-1,-1,-1,-1,-1,-1,-1,-1,-1,-1,-1,-1,-1,-1,-1,-1,-1,-1,-1,-1,-1,-1,-1,-1,-1,-1,-1,-1,-1,-1,-1,-1,-1,-1,-1,-1,-1,-1,-1,-1,-1,-1,-1,-1,-1,-1,-1],"loss_changes":[7.453355E2,1.4942869E3,1.591244E3,6.3365845E2,1.5643967E3,1.2856814E3,9.237632E2,5.419187E2,1.4977463E3,1.8033926E3,1.1213987E3,7.8860535E2,2.0254297E2,2.1338942E2,1.1581909E2,6.489792E2,9.2827435E2,1.0688164E3,2.6162837E3,2.2475693E3,1.1641179E3,4.7895135E2,1.4003989E3,7.6003625E2,2.648565E2,1.0731915E2,6.8440796E1,1.24854355E1,2.202919E1,4.8502197E1,1.7637161E1,5.709446E2,6.490284E2,1.9445457E2,6.8774536E1,7.598877E2,6.442339E2,1.20115265E2,5.0776367E1,1.3611133E3,1.256604E2,7.512111E2,2.7776724E3,2.6995715E2,6.7430756E1,1.1269387E3,1.9049805E1,7.103457E2,1.8368928E3,2.3396191E2,3.070171E2,1.1807892E2,7.3190926E1,1.2806107E1,4.502368E1,5.5585747E0,5.1754303E0,7.9063416E0,8.040917E0,1.0089783E1,7.911865E0,8.449699E0,1.3163597E1,0E0,0E0,0E0,0E0,0E0,0E0,0E0,0E0,0E0,0E0,0E0,0E0,0E0,0E0,0E0,0E0,0E0,0E0,0E0,0E0,0E0,0E0,0E0,0E0,0E0,0E0,0E0,0E0,0E0,0E0,0E0,0E0,0E0,0E0,0E0,0E0,0E0,0E0,0E0,0E0,0E0,0E0,0E0,0E0,0E0,0E0,0E0,0E0,0E0,0E0,0E0,0E0,0E0,0E0,0E0,0E0,0E0,0E0,0E0,0E0,0E0,0E0,0E0,0E0],"parents":[2147483647,0,0,1,1,2,2,3,3,4,4,5,5,6,6,7,7,8,8,9,9,10,10,11,11,12,12,13,13,14,14,15,15,16,16,17,17,18,18,19,19,20,20,21,21,22,22,23,23,24,24,25,25,26,26,27,27,28,28,29,29,30,30,31,31,32,32,33,33,34,34,35,35,36,36,37,37,38,38,39,39,40,40,41,41,42,42,43,43,44,44,45,45,46,46,47,47,48,48,49,49,50,50,51,51,52,52,53,53,54,54,55,55,56,56,57,57,58,58,59,59,60,60,61,61,62,62],"right_children":[2,4,6,8,10,12,14,16,18,20,22,24,26,28,30,32,34,36,38,40,42,44,46,48,50,52,54,56,58,60,62,64,66,68,70,72,74,76,78,80,82,84,86,88,90,92,94,96,98,100,102,104,106,108,110,112,114,116,118,120,122,124,126,-1,-1,-1,-1,-1,-1,-1,-1,-1,-1,-1,-1,-1,-1,-1,-1,-1,-1,-1,-1,-1,-1,-1,-1,-1,-1,-1,-1,-1,-1,-1,-1,-1,-1,-1,-1,-1,-1,-1,-1,-1,-1,-1,-1,-1,-1,-1,-1,-1,-1,-1,-1,-1,-1,-1,-1,-1,-1,-1,-1,-1,-1,-1,-1],"split_conditions":[7.2747623E-3,6.715165E-3,1.6666667E-1,1E0,1E0,1E0,1E0,1E0,6.155568E-3,1E0,8.086E3,1E0,1.066353E6,1E0,4.614382E6,1E0,5.595971E-3,1E0,1E0,1E0,1.5432099E-1,1E0,1E0,1.5432099E-1,1E0,1E0,9.8E1,1.8518518E-1,1.9E1,5.831063E-1,7.384196E-1,3.701E3,1E0,1E0,3.006363E6,1E0,2.759E3,2.518927E6,2.78292E5,1E0,1.1319E4,1E0,1.7283951E-1,6.707E3,1.60879E5,1E0,5.18979E6,8.46E2,8.13E2,1E0,3.2869E4,1.89E2,2.131E3,4.725264E6,1E0,1.69283E5,1.87623E5,1.159985E6,8.038147E-1,5.9041E4,9.1553134E-1,3.73297E-1,6.563554E6,-1.1133049E-2,8.662464E-3,9.0925165E-2,-1.7671464E-1,-3.353081E-2,1.14232995E-1,-1.8962014E-1,-3.0462372E-1,4.419131E-2,2.8261578E-1,2.2215143E-2,-6.1884698E-2,-1.0183046E-1,-2.7979854E-1,2.138923E-1,2.928622E-1,-5.6791924E-2,1.4187022E-1,1.859146E-1,-1.3814078E-1,-7.6805847E-3,6.1776523E-2,-1.19387105E-1,1.3624622E-1,-1.0124187E-1,-1.3095932E-2,2.7140108E-1,1.0087282E-1,5.9799466E-2,-5.8306176E-2,3.0283588E-1,1.8079224E-1,-5.7413965E-3,1.4731885E-2,2.799527E-2,-4.9528357E-2,-8.054724E-2,-2.3779084E-1,-2.214647E-2,-2.8484884E-1,-1.6804045E-2,-1.00787856E-1,2.4046455E-2,-1.0855305E-1,-1.2682692E-2,-1.1928267E-1,-1.5080862E-1,-9.2358455E-2,-4.5194585E-2,-1.2592877E-1,-7.877455E-2,-3.020213E-2,1.3595313E-1,2.1107686E-1,3.778115E-2,1.4904325E-1,3.5250568E-1,2.2578205E-1,2.9771057E-1,3.5609156E-1,8.766394E-3,1.2431722E-1,2.382539E-1,-2.4931988E-1],"split_indices":[5,5,4,34,33,19,46,27,5,44,0,18,1,6,1,30,5,6,6,39,4,15,37,4,14,36,0,4,0,2,2,0,14,22,1,37,0,1,1,8,0,12,4,0,1,38,1,0,0,9,0,0,0,1,12,1,1,1,2,1,2,2,1,0,0,0,0,0,0,0,0,0,0,0,0,0,0,0,0,0,0,0,0,0,0,0,0,0,0,0,0,0,0,0,0,0,0,0,0,0,0,0,0,0,0,0,0,0,0,0,0,0,0,0,0,0,0,0,0,0,0,0,0,0,0,0,0],"split_type":[0,0,0,0,0,0,0,0,0,0,0,0,0,0,0,0,0,0,0,0,0,0,0,0,0,0,0,0,0,0,0,0,0,0,0,0,0,0,0,0,0,0,0,0,0,0,0,0,0,0,0,0,0,0,0,0,0,0,0,0,0,0,0,0,0,0,0,0,0,0,0,0,0,0,0,0,0,0,0,0,0,0,0,0,0,0,0,0,0,0,0,0,0,0,0,0,0,0,0,0,0,0,0,0,0,0,0,0,0,0,0,0,0,0,0,0,0,0,0,0,0,0,0,0,0,0,0],"sum_hessian":[2.2702155E6,1.2336925E6,1.03652294E6,6.691377E5,5.645548E5,1.03035706E6,6.1658843E3,5.92803E5,7.633471E4,5.003841E5,6.4170703E4,1.0147923E6,1.5564727E4,2.3598264E3,3.806058E3,5.7296706E5,1.9835967E4,6.968119E4,6.653522E3,1.6775427E5,3.3262984E5,1.3718261E4,5.045244E4,9.966132E5,1.8179135E4,9.257078E3,6.307649E3,1.5108538E3,8.4897266E2,3.1205486E3,6.8550934E2,5.608621E5,1.2104898E4,1.7947316E4,1.8886487E3,3.679104E4,3.2890152E4,1.7436351E3,4.9098867E3,1.6383088E5,3.9233896E3,3.0749962E5,2.5130213E4,1.2785411E4,9.328498E2,4.84662E4,1.9862441E3,8.845208E5,1.1209237E5,5.818533E3,1.2360602E4,6.7245034E3,2.5325745E3,6.78784E2,5.6288647E3,3.886158E2,1.1222379E3,5.40212E2,3.0876068E2,1.3965891E3,1.7239595E3,5.2361957E2,1.6188982E2,2.0904575E5,3.518164E5,1.1226484E4,8.7841364E2,1.7107344E4,8.399731E2,9.3747015E2,9.5117847E2,3.5546777E4,1.244262E3,1.55346875E4,1.7355465E4,1.2777316E3,4.6590353E2,9.150366E2,3.99485E3,1.6066677E5,3.1641113E3,3.8132485E3,1.1014098E2,2.927818E5,1.4717823E4,2.0423967E4,4.706245E3,7.334045E3,5.451366E3,3.1616327E2,6.166865E2,3.955851E4,8.9076875E3,1.8578783E3,1.2836586E2,1.9591873E5,6.8860206E5,4.844382E4,6.3648543E4,4.782777E3,1.0357565E3,1.1947321E4,4.1328113E2,2.2797903E3,4.444713E3,2.0765095E3,4.5606497E2,5.5562384E2,1.23160164E2,3.9184465E3,1.7104185E3,1.0758367E2,2.8103217E2,2.5581938E2,8.664186E2,3.1971133E2,2.2050063E2,2.3097362E2,7.778707E1,6.169668E1,1.3348925E3,1.4418989E3,2.8206055E2,6.519668E1,4.5842288E2,1.5752133E2,4.368496E0],"tree_param":{"num_deleted":"0","num_feature":"49","num_nodes":"127","size_leaf_vector":"1"}},{"base_weights":[-7.196455E-4,1.1064303E-2,-2.9102452E-2,2.4227034E-2,-4.5127664E-2,-6.82984E-2,3.790106E-2,2.6145589E-2,-2.0252474E-1,-1.09827206E-1,-1.825912E-2,-4.252144E-2,-1.3743098E-1,2.1492134E-1,1.1227117E-2,2.418226E-2,2.3508207E-1,-4.2045584E-1,-9.889512E-2,-1.5269326E-1,6.373874E-2,2.0232107E-1,-3.5914402E-2,-3.5687484E-2,-2.2959107E-1,-1.4157982E-1,2.806296E-1,1.4081226E-1,4.213377E-1,-3.663568E-2,7.350338E-2,2.202654E-2,2.0668769E-1,-3.32066E-2,5.14011E-1,-5.5781806E-1,-2.3848113E-1,-2.741787E-1,2.2384438E-1,-1.7509286E-1,3.6735252E-1,1.7672703E-1,-1.898333E-1,1.4266202E-1,8.13987E-1,-2.3827564E-2,-3.0338976E-1,-8.8204235E-2,-1.788732E-2,5.7252795E-2,-3.2817343E-1,-1.4613588E-1,1.4916585E-1,1.424223E-1,9.091343E-1,8.911959E-2,3.7098086E-1,1.9419855E-2,7.5020814E-1,1.8180078E-2,-7.312407E-2,6.8534225E-2,7.348496E-1,7.51896E-3,-4.2549737E-2,1.9263446E-2,1.9847865E-1,-4.8229035E-2,1.0094882E-1,2.1386416E-1,9.3810745E-2,-1.3543168E-1,-2.3798089E-1,-6.219854E-2,-1.1893167E-1,-6.0350027E-2,-1.8535258E-1,1.7431527E-1,5.492743E-3,-5.963491E-2,5.9457697E-2,1.3529024E-1,-2.555322E-1,2.8016139E-2,1.9304974E-1,-2.8118634E-1,-3.451619E-2,8.957214E-2,6.616866E-3,2.2228488E-1,2.722697E-1,-3.5290476E-3,-8.8622496E-2,-7.278853E-2,-1.4729711E-1,-3.0660246E-2,1.3404536E-1,-1.2503141E-2,2.1691099E-2,2.1360882E-2,-2.5768217E-1,-1.8029207E-1,-6.283422E-2,-5.3852405E-2,-3.313921E-2,8.773599E-2,-5.963144E-3,-5.621982E-2,1.5114851E-1,5.5911183E-1,8.805397E-2,-6.042955E-2,4.8191022E-2,-5.550688E-3,1.4426737E-1,8.0229566E-2,-1.5650082E-1,2.7326137E-1,1.2952852E-1,-5.4611745E-3,1.868124E-1,-2.8608974E-2,2.4911702E-2,-7.957004E-3,2.9634977E-2,-3.3256523E-2,2.3708357E-1],"categories":[],"categories_nodes":[],"categories_segments":[],"categories_sizes":[],"default_left":[0,0,0,1,0,0,0,0,0,0,0,0,0,0,0,1,0,0,0,1,0,0,1,0,0,0,0,1,0,0,0,0,0,0,0,0,0,0,0,1,0,0,0,0,0,1,0,1,0,1,0,0,0,0,0,0,0,0,0,0,1,0,0,0,0,0,0,0,0,0,0,0,0,0,0,0,0,0,0,0,0,0,0,0,0,0,0,0,0,0,0,0,0,0,0,0,0,0,0,0,0,0,0,0,0,0,0,0,0,0,0,0,0,0,0,0,0,0,0,0,0,0,0,0,0,0,0],"id":12,"left_children":[1,3,5,7,9,11,13,15,17,19,21,23,25,27,29,31,33,35,37,39,41,43,45,47,49,51,53,55,57,59,61,63,65,67,69,71,73,75,77,79,81,83,85,87,89,91,93,95,97,99,101,103,105,107,109,111,113,115,117,119,121,123,125,-1,-1,-1,-1,-1,-1,-1,-1,-1,-1,-1,-1,-1,-1,-1,-1,-1,-1,-1,-1,-1,-1,-1,-1,-1,-1,-1,-1,-1,-1,-1,-1,-1,-1,-1,-1,-1,-1,-1,-1,-1,-1,-1,-1,-1,-1,-1,-1,-1,-1,-1,-1,-1,-1,-1,-1,-1,-1,-1,-1,-1,-1,-1,-1],"loss_changes":[7.58175E2,1.1847657E3,1.7465732E3,5.645978E2,5.284772E2,7.477113E2,1.158982E3,5.2790314E2,2.4587186E2,6.636908E2,8.365403E2,3.9071906E2,1.9769531E2,4.9162976E2,6.3582306E2,5.0159576E2,8.9653754E2,8.757526E1,4.1760876E2,8.3337744E2,5.0623767E2,5.807886E2,6.4297705E2,2.7563635E2,3.046131E2,1.4949365E2,9.717024E1,2.813834E2,1.1222899E3,2.4124593E2,3.0458743E2,6.269885E2,9.6460535E2,2.8807297E2,2.3492505E2,4.970526E1,7.353462E0,1.1990378E2,1.9075575E2,6.0653125E2,3.0153955E2,4.7540985E2,3.0431946E2,2.727525E2,8.995056E0,6.234508E2,9.7896484E1,5.5899615E2,4.7251382E2,3.5284843E1,2.595191E2,1.3223633E2,4.218597E1,1.0968758E2,1.1800069E2,4.0140524E2,1.8568842E2,5.130484E2,2.3852222E2,1.0602305E3,2.5149191E2,2.645628E2,3.2489197E1,0E0,0E0,0E0,0E0,0E0,0E0,0E0,0E0,0E0,0E0,0E0,0E0,0E0,0E0,0E0,0E0,0E0,0E0,0E0,0E0,0E0,0E0,0E0,0E0,0E0,0E0,0E0,0E0,0E0,0E0,0E0,0E0,0E0,0E0,0E0,0E0,0E0,0E0,0E0,0E0,0E0,0E0,0E0,0E0,0E0,0E0,0E0,0E0,0E0,0E0,0E0,0E0,0E0,0E0,0E0,0E0,0E0,0E0,0E0,0E0,0E0,0E0,0E0,0E0],"parents":[2147483647,0,0,1,1,2,2,3,3,4,4,5,5,6,6,7,7,8,8,9,9,10,10,11,11,12,12,13,13,14,14,15,15,16,16,17,17,18,18,19,19,20,20,21,21,22,22,23,23,24,24,25,25,26,26,27,27,28,28,29,29,30,30,31,31,32,32,33,33,34,34,35,35,36,36,37,37,38,38,39,39,40,40,41,41,42,42,43,43,44,44,45,45,46,46,47,47,48,48,49,49,50,50,51,51,52,52,53,53,54,54,55,55,56,56,57,57,58,58,59,59,60,60,61,61,62,62],"right_children":[2,4,6,8,10,12,14,16,18,20,22,24,26,28,30,32,34,36,38,40,42,44,46,48,50,52,54,56,58,60,62,64,66,68,70,72,74,76,78,80,82,84,86,88,90,92,94,96,98,100,102,104,106,108,110,112,114,116,118,120,122,124,126,-1,-1,-1,-1,-1,-1,-1,-1,-1,-1,-1,-1,-1,-1,-1,-1,-1,-1,-1,-1,-1,-1,-1,-1,-1,-1,-1,-1,-1,-1,-1,-1,-1,-1,-1,-1,-1,-1,-1,-1,-1,-1,-1,-1,-1,-1,-1,-1,-1,-1,-1,-1,-1,-1,-1,-1,-1,-1,-1,-1,-1,-1,-1,-1],"split_conditions":[3.488333E6,1.708E4,2.1939E4,1E0,2.1939E4,5.236745E6,2.3945E4,1.6706E4,7.2747623E-3,1.2870733E-2,2.2663E4,